tree
version=v3
num_class=1
num_tree_per_iteration=1
label_index=0
max_feature_idx=3
objective=binary sigmoid:1
feature_names=amount num1_float num2_double num3_int
feature_infos=[0:1000] [1.3999999761581421:1000.4000244140625] [200183.703125:39999960] [10000:12000]
tree_sizes=18357 18360 18289 18836 18251 18277 18792 18794 18894 19107 18362 18549 18702 18904 18390 18398 18945 18343 18737 19635 19120 18439 19271 18885 19076 18825 18896 18711 19012 18890 19370 18818 19368 19157 18495 19484 18305 17955 17745 18831 18212 18215 17706 17920 18556 17501 18565 18403 18275 18497 17835 16992 18304 17563 19058 17958 18526 18198 18422 17761 18235 17663 18559 19098 18571 18128 18107 17606 18379 18154 17833 18907 18395 18387 19032 18485 17900 17732 18521 18476 18553 18054 18312 18287 18622 18937 18096 18192 17870 17729 18479 18362 18147 18774 17943 18963 18358 18279 18195 18609 18168 18209 18283 18625 18825 18412 17998 18083 18971 18307 18190 18348 18331 18440 18975 18541 17552 18878 18862 18090 17977 18651 18438 18698 17936 18666 18556 18021 19232 18577 19210 18293 19177 18169 18388 18776 17822 18568 18784 18116 18158 18467 17860 18599 18556 18266 18039 19127 19132 18677 18511 18884 18098 18489 18690 18989 18730 19042 19030 18499 18493 19520 18975 18850 18637 18061 18966 18430 17635 18430 18190 18074 18880 18500 19209 18610 19993 18612 18201 18477 18316 18310 18664 19500 19739 19108 18115 19572 20072 19869 18984 18071 18682 18838 18580 19783 18626 19567 18156 17922

Tree=0
num_leaves=179
num_cat=0
split_feature=0 0 1 0 0 3 2 2 1 3 1 3 1 0 1 2 1 1 1 0 0 0 2 0 0 1 1 0 3 3 3 2 1 2 1 3 3 0 0 3 1 2 1 2 2 3 2 0 0 2 3 2 2 3 2 2 1 1 2 3 3 2 3 0 3 3 2 3 1 2 1 1 0 0 2 2 1 3 0 3 0 2 2 3 1 3 2 2 2 2 2 3 0 0 0 3 3 0 0 2 2 2 3 3 3 3 0 0 2 3 3 3 2 2 3 2 3 3 1 1 1 1 3 0 2 0 0 1 1 1 3 3 3 1 3 3 2 1 3 3 0 1 2 2 1 1 1 3 3 0 3 2 2 2 3 0 1 2 0 1 3 0 1 3 0 3 1 1 0 2 1 2 2 0 0 2 0 1
split_gain=6800.82 16944.4 14628.5 160.716 56.2874 54.282 28.4834 31.7565 27.2541 25.6836 22.7582 39.616 20.6228 20.9949 18.4836 23.7048 18.9444 18.3946 17.9448 23.902 23.6919 20.3374 30.0826 17.9469 17.5627 17.0548 14.7371 17.9127 14.4464 20.9985 13.3837 29.3246 42.4476 34.5638 27.5343 26.9334 24.3736 18.8732 18.5164 17.3188 16.9774 24.1426 19.1237 30.2684 23.5439 19.079 15.8429 14.5217 18.9587 14.8134 25.2416 25.0235 16.8484 14.4109 11.4751 11.2721 11.0582 19.8884 10.5897 19.2503 26.0599 22.6591 21.3605 24.6142 18.2321 24.0874 21.6294 17.8457 16.9337 17.9891 15.3026 16.0399 13.0295 12.7764 11.6901 11.4692 10.9864 10.4301 17.4841 22.8168 26.5951 17.7037 24.0924 17.0554 20.2653 19.4694 15.0745 13.8103 16.9185 34.9744 21.9659 20.0844 17.8406 15.0035 15.5793 29.7001 15.982 13.9452 15.3199 13.4623 12.6125 12.4367 11.3052 24.3011 9.69679 9.06826 17.1451 24.0534 15.9228 12.0941 11.4745 10.9552 10.6939 17.1448 12.196 9.04037 9.03825 9.96435 16.9921 8.90764 18.8001 8.90097 12.7959 20.111 8.73514 8.70688 11.5687 8.52827 11.7893 8.50272 22.6815 12.2456 8.25671 8.1651 12.9133 17.034 20.8373 10.7816 16.1577 12.864 12.7142 8.09401 8.05613 17.3118 18.3246 8.01848 32.992 24.0209 7.69041 7.6412 7.47585 8.87109 7.27207 11.5066 7.24561 7.6961 7.21292 7.18256 7.09578 8.03804 11.253 6.9195 6.64978 6.45849 6.38061 5.9398 5.79337 5.65195 5.54401 4.37373 3.65215 3.42674 2.47794 2.23674 1.75364 1.16936 9.09495e-13 3.55271e-15
threshold=398.50000000000006 700.50000000000011 699.90002441406261 401.50000000000006 698.50000000000011 11499.500000000002 13661904.500000002 11208700.000000002 45.900001525878913 10014.500000000002 302.89999389648443 11677.500000000002 450.89999389648443 669.50000000000011 21.899999618530277 15732226.500000002 30.899999618530277 500.89999389648443 547.90002441406261 516.50000000000011 574.50000000000011 533.50000000000011 33610292.000000007 450.50000000000006 667.50000000000011 81.90000152587892 311.89999389648443 529.50000000000011 11574.500000000002 11891.500000000002 10624.500000000002 10639511.500000002 150.8999938964844 14704207.000000002 198.8999938964844 10789.500000000002 10274.500000000002 417.50000000000006 491.50000000000006 10340.500000000002 281.89999389648443 21235754.000000004 436.89999389648443 23614926.000000004 31257538.000000004 10694.500000000002 13846806.500000002 409.50000000000006 414.50000000000006 38442786.000000007 11069.500000000002 37762178.000000007 37114358.000000007 10239.500000000002 36284476.000000007 27992933.000000004 568.90002441406261 482.89999389648443 23324373.000000004 10249.500000000002 10458.500000000002 26681595.000000004 10559.500000000002 605.50000000000011 10213.500000000002 10158.500000000002 17680665.000000004 10198.500000000002 183.8999938964844 19914601.000000004 540.90002441406261 428.89999389648443 466.50000000000006 538.50000000000011 31999209.000000004 16467125.500000002 473.89999389648443 11054.500000000002 586.50000000000011 10839.500000000002 542.50000000000011 28931026.000000004 22762075.000000004 10864.500000000002 623.90002441406261 10939.500000000002 15630515.500000002 21049178.000000004 14987041.000000002 16104086.000000002 12151357.000000002 11109.500000000002 495.50000000000006 569.50000000000011 489.50000000000006 11159.500000000002 11257.500000000002 516.50000000000011 476.50000000000006 30883712.000000004 15354721.000000002 7254143.5000000009 11198.500000000002 11321.500000000002 11252.500000000002 11735.500000000002 647.50000000000011 505.50000000000006 33040305.000000004 11839.500000000002 11919.500000000002 11887.500000000002 28660035.000000004 24262914.000000004 11623.500000000002 6212426.5000000009 11814.500000000002 11751.500000000002 174.8999938964844 462.89999389648443 246.8999938964844 652.90002441406261 11810.500000000002 551.50000000000011 27046993.000000004 581.50000000000011 644.50000000000011 204.8999938964844 430.89999389648443 243.8999938964844 10387.500000000002 10514.500000000002 11164.500000000002 287.89999389648443 10331.500000000002 10989.500000000002 22762075.000000004 331.89999389648443 10372.500000000002 11034.500000000002 690.50000000000011 322.89999389648443 3013822.2500000005 4771031.5000000009 405.89999389648443 337.89999389648443 222.8999938964844 11316.500000000002 10960.500000000002 556.50000000000011 10478.500000000002 27340661.000000004 9393183.5000000019 21706756.000000004 10679.500000000002 536.50000000000011 617.90002441406261 17771339.000000004 637.50000000000011 563.90002441406261 11586.500000000002 516.50000000000011 363.89999389648443 10799.500000000002 502.50000000000006 11847.500000000002 216.8999938964844 325.89999389648443 520.50000000000011 22073049.000000004 380.89999389648443 20196014.000000004 17961787.000000004 531.50000000000011 571.50000000000011 33322483.000000004 395.50000000000006 388.89999389648443
decision_type=2 2 2 2 2 2 2 2 2 2 2 2 2 2 2 2 2 2 2 2 2 2 2 2 2 2 2 2 2 2 2 2 2 2 2 2 2 2 2 2 2 2 2 2 2 2 2 2 2 2 2 2 2 2 2 2 2 2 2 2 2 2 2 2 2 2 2 2 2 2 2 2 2 2 2 2 2 2 2 2 2 2 2 2 2 2 2 2 2 2 2 2 2 2 2 2 2 2 2 2 2 2 2 2 2 2 2 2 2 2 2 2 2 2 2 2 2 2 2 2 2 2 2 2 2 2 2 2 2 2 2 2 2 2 2 2 2 2 2 2 2 2 2 2 2 2 2 2 2 2 2 2 2 2 2 2 2 2 2 2 2 2 2 2 2 2 2 2 2 2 2 2 2 2 2 2 2 2
left_child=176 2 3 -2 5 9 7 12 124 -5 105 54 13 28 15 -11 172 -14 21 -20 -21 23 125 -13 30 -26 -9 -28 -7 116 31 32 39 34 -33 37 142 -32 -36 -18 41 45 154 46 -45 -39 -44 170 -49 51 -51 52 77 -40 158 -43 57 129 64 67 61 -61 63 119 65 76 75 70 -68 -70 71 73 -63 74 -60 -66 173 78 79 100 83 82 101 -81 85 86 -85 88 90 -90 91 -79 -92 94 96 -96 132 98 162 -98 -50 -80 -99 -104 -97 108 107 111 112 -109 -111 -107 113 114 -10 -105 117 118 -30 120 -62 122 123 -19 -8 -23 -127 -74 -129 -38 -131 -132 -89 134 -27 136 -136 -135 171 140 163 -64 -34 -144 -145 146 -95 -147 -103 -82 -17 -152 -87 -154 -42 -156 -22 -91 159 160 -12 -159 -93 -140 -71 -25 -75 -106 -120 -141 -37 -139 -16 -35 -151 -130 -1 -178
right_child=1 -3 -4 4 -6 6 8 26 10 14 11 18 17 -15 16 150 24 121 19 20 156 22 -24 165 25 133 27 -29 29 -31 35 33 36 58 38 47 56 40 53 -41 42 55 43 44 -46 -47 -48 48 49 50 -52 -53 -54 -55 -56 -57 -58 -59 59 60 62 72 141 -65 66 -67 68 -69 69 164 -72 -73 127 166 -76 -77 -78 87 81 80 149 -83 -84 84 -86 152 -88 93 89 157 92 97 -94 145 95 104 99 102 -100 -101 -102 148 103 115 167 106 -108 109 -110 110 -112 -113 -114 -115 -116 -117 -118 -119 168 -121 -122 -123 -124 -125 -126 126 -128 128 175 130 131 -133 -134 137 135 -137 -138 138 139 169 -142 -143 143 144 -146 147 -148 -149 -150 174 151 -153 153 -155 155 -157 -158 161 -160 -161 -162 -163 -164 -165 -166 -167 -168 -169 -170 -171 -172 -173 -174 -175 -176 -177 177 -179
leaf_value=-2.9119283964130251 -2.8619202664379375 -2.9119283964130251 -2.9119283964130251 -2.7428331094633647 -2.8343589675312133 -2.759930001357167 -2.8404508074957535 -2.7762813438556004 -2.7693126183359236 -2.7352487296614187 -2.8216505617737884 -2.7837385421106879 -2.7368999415002189 -2.8297921382416522 -2.7955742530903072 -2.7955742530903072 -2.8199262598562935 -2.8268587004498178 -2.7483504011674116 -2.8239252626579829 -2.7560436787563072 -2.7490676950503068 -2.825408648814081 -2.8127187192043839 -2.7384219280646778 -2.8092580736988091 -2.7653929457883502 -2.7120379450637406 -2.7756081574905509 -2.7665922686729272 -2.8295022054366452 -2.7651525661121283 -2.7544027869914993 -2.7867626990044485 -2.784098625971088 -2.81203410751157 -2.7291780979011242 -2.7318991285027101 -2.8456793083385516 -2.774239345214951 -2.8313459889531689 -2.8190956247465642 -2.788475724452582 -2.733346064243106 -2.7885108961539951 -2.7787817503543546 -2.8296569567765908 -2.7439956896723596 -2.7368999415002189 -2.7228976651071943 -2.7806570552284202 -2.8239083063701687 -2.7435586327197279 -2.8065969010912464 -2.7856783633611646 -2.7811450527792925 -2.7661584294856429 -2.7069485481461557 -2.7342071960400216 -2.7601180018457949 -2.7813666300456346 -2.7753352440993146 -2.7682483214846019 -2.714641987696278 -2.7699241782762201 -2.8298838081726472 -2.7567895386494015 -2.7384488658799779 -2.8173017052410838 -2.7623230690294531 -2.7921102594928491 -2.7315144505798248 -2.7850327666012404 -2.7692751470332233 -2.7761304572565373 -2.7343632972261203 -2.7606809815698936 -2.7384420424245608 -2.8166695470578254 -2.8231815742037147 -2.7433483582601643 -2.769433111558361 -2.8395028288628983 -2.7879132600175192 -2.8249142502563727 -2.8145811096918574 -2.7452961404443754 -2.7806570552284202 -2.7156586241564313 -2.7864099825313313 -2.8295022054366457 -2.7913006774866318 -2.7829873157228215 -2.7597049519123109 -2.762592191762649 -2.834952531425194 -2.7785733831461252 -2.804267008678889 -2.7426574564644559 -2.7379001040997206 -2.7725252022346836 -2.7954359479445681 -2.7518413949683853 -2.8072918201064563 -2.7885333356994968 -2.758859231046475 -2.7585848828168498 -2.8292377877928017 -2.7503636688012039 -2.7748227733979935 -2.8172909178845891 -2.7952427598044878 -2.8081324522205469 -2.7445934999579245 -2.8079020505686212 -2.7764897110638298 -2.8204197436370353 -2.770984430088502 -2.8330138329263264 -2.7862430697469143 -2.728430822714115 -2.7558219366259276 -2.762266384241205 -2.7711233824049573 -2.804652891789047 -2.7975764725366585 -2.7578272567615327 -2.8291192349489016 -2.7898155208924624 -2.7237962069078163 -2.7937841893468809 -2.7510640939209083 -2.8145811096918574 -2.7419732300484161 -2.7295303223459952 -2.7939503556015448 -2.7848916146214719 -2.760169620477066 -2.7684366000430667 -2.7721574719862518 -2.8145811096918574 -2.7998548403028489 -2.8110645410395434 -2.7905939296607212 -2.7454379149105996 -2.7411951183078949 -2.8239083063701687 -2.7894776591815362 -2.7659290510955135 -2.7806570552284202 -2.7850819318975644 -2.7486894229192163 -2.7690890826336085 -2.802331139598464 -2.7863645048451424 -2.8191226110173977 -2.7871323231792307 -2.7774553151995276 -2.8369162014503937 -2.8290201809280116 -2.7889987123605526 -2.7513518322728356 -2.7622545307632889 -2.7962316211316787 -2.7904800807592411 -2.8413524065288289 -2.7988330870847502 -2.8144125429616045 -2.8032900450878349 -2.7495831628707119 -2.78890839667431 -2.7368999415002189 -2.8153609730128561 -2.8056972532578537 -2.7645830134507134 -2.8033911981151398 -2.9119283964130251 -2.9119283964130251
leaf_weight=3652.5001955218613 16.847279369831085 2780.9543324075639 844.77072268724442 14.791510161012409 13.237148076295851 11.432082429528235 9.5768760703504103 12.033770978450777 12.184193115681415 15.944746546447275 14.290103036910297 10.679971743375065 9.326172508299349 8.975187521427868 8.8247653841972369 8.8247653841972369 11.732926703989508 8.9751875214278751 16.095168683677912 8.9751875214278716 9.6270167827606219 9.3763132207095641 8.8247653841972333 10.880534593015911 11.532363854348658 8.975187521427868 8.6242025345563906 8.8247653841972333 10.429268181324007 16.847279369831085 8.6242025345563871 12.735740952193735 12.033770978450773 8.6242025345563942 13.387570213526486 10.278846044093372 10.228705331683157 10.52954960614443 10.730112455785276 11.2816602922976 10.128423906862738 9.0754689462482947 15.99488725885749 9.8777203448116797 11.732926703989504 14.039399474859236 10.880534593015907 11.131238155066965 11.582504566758873 8.7746246717870253 13.036585226655005 8.6743432469665986 9.2258910834789258 16.746997945010662 9.1757503710687143 13.487851638346909 16.797138657420874 9.3763132207095605 9.7774389199912566 14.741369448602198 9.2760317958891445 14.841650873422621 10.078283194452526 8.6743432469665986 15.944746546447279 11.231519579887388 11.030956730246542 16.99770150706172 14.189821612089871 8.9751875214278716 14.941932298243044 9.777438919991253 12.033770978450773 8.6743432469666022 8.7244839593768102 10.379127468913792 9.2258910834789258 11.381941717118023 11.331801004707811 10.679971743375061 9.5267353579401988 13.487851638346909 10.178564619272946 9.9780017696321028 8.7746246717870218 8.9250468090176565 13.588133063167332 11.231519579887392 10.32898675650358 12.585318814963101 8.6242025345563906 11.131238155066969 16.947560794651508 15.393198709934952 10.930675305426119 9.5768760703504068 15.794324409216644 13.939118050038813 15.242776572704313 8.7746246717870218 16.99770150706172 15.142495147883894 16.446153670549393 13.838836625218393 10.028142482042314 13.588133063167335 11.331801004707811 12.735740952193739 14.992073010653256 9.0253282338380831 8.6242025345563871 9.9278610572218877 8.6242025345563871 9.1256096586585027 10.62983103096485 12.635459527373312 12.083911690860985 9.5267353579401952 8.6743432469666022 9.4264539331197721 9.326172508299349 9.2760317958891374 10.379127468913792 8.975187521427868 9.326172508299349 11.281660292297603 9.2258910834789258 13.989258762449028 8.6242025345563906 9.3763132207095641 10.028142482042314 8.6743432469665986 8.9250468090176565 10.379127468913792 9.5267353579401988 15.844465121626852 9.326172508299349 8.6743432469666022 16.696857232600454 13.939118050038816 8.9250468090176565 12.685600239783524 8.8749060966074449 12.585318814963104 12.334615252912043 16.345872245728973 8.6743432469665986 12.685600239783524 10.278846044093369 9.0253282338380831 8.92504680901766 9.6771574951708299 13.08672593906522 16.095168683677912 9.2258910834789294 10.780253168195484 11.181378867477177 12.334615252912046 10.529549606144426 14.290103036910294 14.992073010653256 16.396012958139181 10.730112455785273 8.8749060966074449 14.741369448602198 9.326172508299349 9.777438919991253 14.039399474859236 8.7244839593768102 10.379127468913792 8.7746246717870218 8.8749060966074449 8.7244839593768102 8.6743432469665986 9.8275796324014646 8.975187521427868 10.52954960614443 16.496294382959604
leaf_count=72845 336 55463 16848 295 264 228 191 240 243 318 285 213 186 179 176 176 234 179 321 179 192 187 176 217 230 179 172 176 208 336 172 254 240 172 267 205 204 210 214 225 202 181 319 197 234 280 217 222 231 175 260 173 184 334 183 269 335 187 195 294 185 296 201 173 318 224 220 339 283 179 298 195 240 173 174 207 184 227 226 213 190 269 203 199 175 178 271 224 206 251 172 222 338 307 218 191 315 278 304 175 339 302 328 276 200 271 226 254 299 180 172 198 172 182 212 252 241 190 173 188 186 185 207 179 186 225 184 279 172 187 200 173 178 207 190 316 186 173 333 278 178 253 177 251 246 326 173 253 205 180 178 193 261 321 184 215 223 246 210 285 299 327 214 177 294 186 195 280 174 207 175 177 174 173 196 179 210 329
internal_value=0 0.694528 2.42496 3.91889 3.94544 3.95947 3.66841 4.00823 3.49435 4.05569 3.56784 3.34126 3.80097 3.51192 4.04224 4.68517 4.0223 4.33491 3.68975 4.17528 3.64467 3.36968 3.85256 2.76451 4.03543 4.3686 4.94761 5.53474 3.67916 3.50011 3.99725 4.12125 4.52448 3.97901 3.23511 3.91014 4.78221 3.50589 2.83499 3.28917 3.60403 4.07858 3.31954 3.70835 4.58946 4.76445 2.99985 4.00169 4.03018 4.00464 4.81264 3.97209 3.99952 2.36513 2.7053 3.33175 5.1785 5.42428 4.10194 4.23407 4.00167 3.60222 4.4934 4.9654 3.85485 3.28778 4.13934 4.626 3.74616 3.42883 4.37596 4.65763 3.32285 4.35627 4.94347 4.87028 3.80754 3.97591 3.79531 3.99162 3.78396 3.34664 3.05645 3.49248 3.67101 3.87331 4.58779 4.08624 4.26831 4.75299 4.0771 4.27892 3.24572 3.85282 3.60252 3.18413 4.0195 4.12695 4.60384 4.56094 4.7873 3.43351 3.81575 4.06986 2.71887 3.90316 3.6503 3.41523 4.20006 2.82756 3.36348 4.17458 3.8746 4.1414 3.67803 3.47679 3.17155 3.41474 3.11255 4.50983 4.91113 4.02314 3.74475 3.2337 2.32979 4.33162 3.96664 3.04749 2.77459 5.10477 4.82042 4.18404 3.35953 4.26553 3.91289 4.18945 4.83178 4.44307 4.3131 4.06183 3.66917 3.73238 4.22464 3.97445 4.40157 4.27376 3.84697 4.62758 3.82189 4.61718 4.12148 4.48107 3.43147 3.67306 2.69394 3.04284 4.23042 4.34153 2.52993 2.70796 3.008 4.61748 4.06729 4.02783 3.96169 2.21034 3.76748 3.05752 2.50756 4.61885 3.14281 5.15519 2.98985 3.33753 4.24832 3.31925 -1.0559 -1.0559
internal_weight=0 5594.05 2813.09 1968.32 1951.48 1938.24 481.551 163.108 318.444 1456.69 299.541 178.752 133.625 86.6933 1441.9 43.3717 1398.52 46.9317 115.474 45.8788 29.7836 69.5953 38.7086 30.8867 1380.98 141.948 29.4827 17.449 77.7181 66.286 1239.03 511.285 133.324 377.961 53.6004 727.742 110.31 134.377 40.8647 23.0146 125.753 47.1323 78.6206 48.4861 21.6106 24.5689 26.8754 593.365 574.312 563.18 21.8112 541.369 532.695 27.4771 63.2776 22.5633 64.481 47.6838 324.36 211.343 132.672 73.2054 59.4669 36.703 113.017 37.756 75.2612 78.6708 48.9373 37.9064 61.6731 46.7311 58.4641 36.9537 18.5019 26.3239 26.5244 523.469 198.507 138.088 109.507 60.4196 46.9317 81.1277 70.4477 61.6731 23.5661 324.962 182.562 51.6449 130.917 105.346 25.5718 142.4 89.3006 44.5751 44.7255 93.9637 37.1041 24.5689 28.5802 36.7531 56.8596 42.9204 33.6444 120.789 65.2331 53.9013 55.5559 30.3853 17.6495 23.516 40.5638 31.9396 22.814 26.4743 49.4387 37.3548 27.8281 28.0287 18.6022 37.6055 28.3295 17.9504 18.903 29.8839 20.5076 43.6224 31.5886 38.3075 28.0788 18.7025 20.1566 130.416 43.6726 34.6974 18.8529 86.7434 76.3643 58.8151 34.4968 22.7639 45.8286 33.7948 24.9199 53.099 24.0675 29.0315 25.4213 28.3796 27.427 18.6022 38.1069 29.1819 30.1346 20.0061 20.8084 41.3159 54.1018 43.5723 29.2822 28.7306 21.8614 25.5718 23.7166 20.2067 18.4518 24.0675 17.3988 24.3182 19.0535 17.5492 17.5492 17.2985 18.8529 17.5994 3679.53 27.0258
internal_count=184951 111567 56104 39256 38920 38656 9604 3253 6351 29052 5974 3565 2665 1729 28757 865 27892 936 2303 915 594 1388 772 616 27542 2831 588 348 1550 1322 24711 10197 2659 7538 1069 14514 2200 2680 815 459 2508 940 1568 967 431 490 536 11834 11454 11232 435 10797 10624 548 1262 450 1286 951 6469 4215 2646 1460 1186 732 2254 753 1501 1569 976 756 1230 932 1166 737 369 525 529 10440 3959 2754 2184 1205 936 1618 1405 1230 470 6481 3641 1030 2611 2101 510 2840 1781 889 892 1874 740 490 570 733 1134 856 671 2409 1301 1075 1108 606 352 469 809 637 455 528 986 745 555 559 371 750 565 358 377 596 409 870 630 764 560 373 402 2601 871 692 376 1730 1523 1173 688 454 914 674 497 1059 480 579 507 566 547 371 760 582 601 399 415 824 1079 869 584 573 436 510 473 403 368 480 347 485 380 350 350 345 376 351 73384 539
shrinkage=1


Tree=1
num_leaves=178
num_cat=0
split_feature=0 0 1 0 0 3 2 2 1 3 2 1 3 1 3 3 3 0 0 3 0 3 3 0 3 1 2 0 0 0 0 2 2 2 2 2 0 1 1 1 3 3 3 2 2 3 0 2 3 1 0 0 0 0 0 2 2 3 0 0 3 2 3 1 2 1 2 3 2 2 0 2 3 0 0 1 1 1 1 3 1 1 1 3 3 1 2 3 1 2 0 2 2 3 1 2 1 2 2 0 1 1 3 1 1 0 3 3 1 2 0 1 3 1 1 0 3 1 1 0 2 2 3 2 1 1 0 3 2 0 0 3 1 3 0 2 2 2 2 1 3 0 1 0 0 2 2 3 1 0 3 1 3 1 1 1 0 2 2 3 2 3 0 3 3 3 2 1 2 2 1 2 3 2 0 0 0
split_gain=6487.15 15263.5 12234.8 123.515 42.024 38.6709 20.5211 22.0001 20.5275 17.5161 17.1275 16.5696 29.5515 14.2839 17.7737 14.3645 14.0347 13.6973 17.2555 18.2569 13.9092 13.246 25.4151 27.5039 16.2736 15.6944 14.9167 17.0761 12.7671 19.2155 11.9347 12.9717 11.9198 11.4041 32.1811 42.2962 30.0818 27.1454 12.3601 14.9468 21.576 36.5473 23.471 28.3198 20.7467 17.6382 14.368 13.7253 12.1003 13.1717 12.2632 22.5987 11.5147 15.2203 16.9183 17.7793 13.304 12.4513 12.2273 14.5787 13.9725 11.8924 11.5464 13.3842 11.1969 11.1926 12.7768 11.0467 22.9606 11.1243 10.8018 11.3992 10.7134 10.5781 17.7746 10.5753 22.3696 10.3985 10.2089 12.63 9.65474 30.5658 24.8122 16.612 30.2455 17.4188 17.0539 13.2796 18.2683 23.2661 22.1692 15.3552 15.1164 19.5317 12.024 11.6729 11.0199 10.7241 31.7465 10.4339 10.2222 9.56149 9.39096 21.6838 12.975 9.94061 11.9304 9.31218 9.28229 14.9337 15.6489 12.2566 9.06189 8.92632 9.34916 8.69728 8.68797 14.01 18.6701 8.62774 8.61966 8.53898 18.6875 16.6368 36.0539 22.2588 22.1003 10.6844 8.35088 8.21274 8.16477 8.10071 7.9569 7.82805 7.80212 17.3205 7.27047 7.21533 14.0716 7.20858 7.05423 7.00156 6.9808 6.79085 10.9569 13.907 10.8276 19.7398 10.2555 12.1567 12.338 8.39803 6.54975 6.43774 7.85088 23.2723 8.11238 6.24124 6.03917 5.71529 5.38563 5.36257 5.3467 5.33778 14.6675 12.1685 4.93602 4.87534 2.68265 2.61265 2.34589 2.11467 1.7465 1.73181 1.2069 4.54747e-13 1.13687e-13
threshold=398.50000000000006 700.50000000000011 699.90002441406261 401.50000000000006 698.50000000000011 11499.500000000002 13661904.500000002 11208700.000000002 45.900001525878913 10014.500000000002 9101666.5000000019 302.89999389648443 11677.500000000002 450.89999389648443 11574.500000000002 11851.500000000002 11711.500000000002 651.50000000000011 655.50000000000011 11435.500000000002 653.50000000000011 10564.500000000002 10320.500000000002 685.50000000000011 10624.500000000002 257.89999389648443 27144801.000000004 677.50000000000011 450.50000000000006 538.50000000000011 675.50000000000011 26497729.000000004 29195013.000000004 12059519.500000002 14896658.000000002 15826183.500000002 533.50000000000011 195.8999938964844 33.900001525878913 141.8999938964844 10684.500000000002 10769.500000000002 10279.500000000002 10153032.000000002 3772398.7500000005 11039.500000000002 598.50000000000011 6871920.5000000009 10824.500000000002 210.8999938964844 622.50000000000011 600.50000000000011 409.50000000000006 453.50000000000006 471.50000000000006 39542102.000000007 37668788.000000007 10418.500000000002 520.50000000000011 516.50000000000011 10071.500000000002 33893080.000000007 10163.500000000002 257.89999389648443 10347879.000000002 150.8999938964844 3772398.7500000005 11287.500000000002 9009455.0000000019 27522806.000000004 610.50000000000011 12531665.000000002 10854.500000000002 624.50000000000011 655.50000000000011 627.90002441406261 516.90002441406261 565.90002441406261 228.8999938964844 10458.500000000002 555.90002441406261 592.90002441406261 621.90002441406261 10493.500000000002 10589.500000000002 153.8999938964844 28931026.000000004 10949.500000000002 506.89999389648443 20958051.000000004 600.50000000000011 33705178.000000007 28660035.000000004 10869.500000000002 275.89999389648443 18248846.000000004 159.8999938964844 26681595.000000004 21893886.000000004 581.50000000000011 650.90002441406261 378.89999389648443 10614.500000000002 430.89999389648443 410.89999389648443 438.50000000000006 10320.500000000002 10839.500000000002 535.90002441406261 34640730.000000007 603.50000000000011 433.89999389648443 11198.500000000002 129.8999938964844 378.89999389648443 444.50000000000006 11408.500000000002 314.89999389648443 402.89999389648443 481.50000000000006 25942763.000000004 36939042.000000007 10234.500000000002 26681595.000000004 129.8999938964844 228.8999938964844 489.50000000000006 10719.500000000002 14236165.000000002 665.50000000000011 483.50000000000006 11855.500000000002 402.89999389648443 10310.500000000002 471.50000000000006 4967483.0000000009 9295076.5000000019 31344729.000000004 25487345.000000004 575.90002441406261 11739.500000000002 685.50000000000011 195.8999938964844 584.50000000000011 512.50000000000011 30979429.000000004 24630884.000000004 11715.500000000002 252.8999938964844 435.50000000000006 11810.500000000002 153.8999938964844 11614.500000000002 631.90002441406261 413.89999389648443 331.89999389648443 491.50000000000006 29574070.000000004 34078902.000000007 11751.500000000002 10055826.500000002 10794.500000000002 576.50000000000011 11262.500000000002 11079.500000000002 10934.500000000002 21145433.000000004 328.89999389648443 25851545.000000004 22665360.000000004 555.90002441406261 27431117.000000004 10839.500000000002 4309624.0000000009 502.50000000000006 374.50000000000006 598.50000000000011
decision_type=2 2 2 2 2 2 2 2 2 2 2 2 2 2 2 2 2 2 2 2 2 2 2 2 2 2 2 2 2 2 2 2 2 2 2 2 2 2 2 2 2 2 2 2 2 2 2 2 2 2 2 2 2 2 2 2 2 2 2 2 2 2 2 2 2 2 2 2 2 2 2 2 2 2 2 2 2 2 2 2 2 2 2 2 2 2 2 2 2 2 2 2 2 2 2 2 2 2 2 2 2 2 2 2 2 2 2 2 2 2 2 2 2 2 2 2 2 2 2 2 2 2 2 2 2 2 2 2 2 2 2 2 2 2 2 2 2 2 2 2 2 2 2 2 2 2 2 2 2 2 2 2 2 2 2 2 2 2 2 2 2 2 2 2 2 2 2 2 2 2 2 2 2 2 2 2 2
left_child=175 2 3 -2 5 9 7 10 140 -5 13 143 108 14 -7 65 -14 33 20 21 -19 22 23 25 -23 -20 27 -24 -18 32 31 128 131 38 37 36 -36 119 -11 44 42 -42 43 46 -40 47 134 -46 -43 -50 51 116 101 56 57 58 102 -55 59 75 -60 72 63 -62 78 -16 -67 68 -32 141 71 -9 -59 77 -75 76 121 171 -44 130 83 107 -83 85 86 -64 -85 92 89 95 113 94 93 99 -92 -89 -94 98 -87 -86 -84 -37 103 105 115 106 -54 -82 109 110 111 -13 168 -91 157 137 117 174 -119 -35 -78 122 -56 125 -125 -124 -127 -126 129 -26 -80 -30 -81 -105 -41 -136 -49 138 -104 173 -8 -70 -17 144 148 169 151 -148 149 -10 -151 -145 -110 154 155 -39 -156 -115 -99 -141 -12 -158 -132 164 165 -120 -27 -98 -106 -146 -134 -31 -102 -15 -51 -1 -4
right_child=1 -3 176 4 -6 6 8 70 11 17 160 12 16 139 15 142 28 18 19 -21 -22 24 26 -25 30 166 -28 -29 29 73 67 -33 -34 34 35 52 -38 153 39 40 41 48 64 -45 45 -47 -48 136 49 50 -52 -53 53 54 55 -57 -58 61 60 -61 62 -63 80 -65 -66 66 -68 -69 69 -71 -72 -73 -74 74 -76 -77 120 -79 79 132 81 82 100 84 87 97 -88 88 -90 90 91 -93 96 -95 -96 -97 167 158 -100 -101 172 -103 104 133 112 -107 -108 -109 152 -111 -112 -113 -114 114 -116 -117 -118 118 163 -121 -122 -123 123 124 127 126 -128 -129 -130 -131 162 -133 170 -135 135 -137 -138 -139 -140 159 -142 -143 -144 146 145 -147 147 -149 -150 150 -152 -153 -154 -155 156 -157 161 -159 -160 -161 -162 -163 -164 -165 -166 -167 -168 -169 -170 -171 -172 -173 -174 -175 -176 -177 -178
leaf_value=-0.027759637539381678 0.021193112312712977 -0.027759637539381678 -0.027759637539381678 0.12115950686129645 0.046327562607075046 0.11721928143888459 0.071629514817016432 0.1221235435690122 0.065536209547370036 0.1178591797802519 0.058261122882040467 0.058113075991597533 0.11128859099930362 0.12521661729160447 0.090841502081027037 0.081661583255274367 0.10410764397453831 0.1028054862757623 0.053892020664513582 0.13149410565981809 0.14620011785250997 0.058665857621483984 0.15397155013270641 0.12163574957709418 0.10454090934915843 0.079541796198240283 0.098177052148626293 0.10872593788551067 0.067110236347408009 0.11668310151049499 0.073156756853438601 0.10275260839095827 0.082229420263849343 0.079537199150361546 0.14537403825356626 0.061090940758889316 0.09535566864768294 0.079637391124495624 0.059862512706765167 0.10969958963771155 0.053631009237416601 0.12058578293629622 0.13326233774642798 0.05126592641082818 0.10630629004752651 0.11794848538017931 0.12864584248657571 0.052711800269704991 0.07293283459371952 0.10777730847099015 0.11936245231381136 0.058731105587074853 0.1364262766234268 0.097120398140695438 0.12166519458350318 0.12311380378838567 0.076014087563632385 0.059248474388570518 0.064398844933555147 0.12434599757612848 0.083580680438405289 0.046598363817938721 0.057786374555672572 0.12300641566736215 0.13863887604675104 0.038921003947137225 0.076167782989587957 0.079859312445717603 0.14204310243901191 0.098804855103966985 0.1359693854847617 0.085276102009072638 0.090935138235177196 0.051377969548175154 0.093815052429235352 0.11465489336299968 0.05135498801970477 0.078704297524771136 0.13833616091824549 0.079294301913796189 0.070172928615580901 0.11928588807095179 0.062537125990426976 0.10228491474272168 0.096853777241526537 0.071333383257812535 0.14894093362887378 0.096097823801081769 0.130387070196546 0.094124587294041384 0.10936090878164774 0.13003199748334837 0.11706696759869313 0.038982285144624262 0.07049826828701547 0.13284736722057999 0.072803457990897144 0.065155019858543564 0.13056823687051436 0.067699084094340556 0.083168758570785609 0.092747480749492739 0.10167584699024987 0.073172874213148748 0.11064820032664328 0.14595263470181888 0.09676389236022806 0.033971695935238071 0.062474601562387586 0.10119650949634039 0.035752760560830335 0.097551624757441655 0.13144587990027029 0.073531837857747903 0.087644579049153237 0.066126496848071634 0.11720699832111832 0.061577444951378547 0.10901936453197024 0.1100783383749795 0.083483056957233445 0.11907110243946087 0.079509716256958823 0.12230438519277535 0.043337921499111247 0.14811336168806591 0.096529362449068887 0.075962707565422991 0.06342904231760714 0.070792585897360746 0.096738583633157793 0.032702457706084702 0.1142339207832654 0.10551558768061414 0.061927844305286035 0.10633598195064582 0.084506012299138705 0.11151484882849153 0.060921165702152356 0.10867813044378548 0.04031390367271101 0.11405808056702875 0.1106022501959176 0.066315224419086244 0.069952237262519423 0.098668144612519132 0.13284188872948866 0.089966631167478037 0.11813097922100768 0.11133606031344931 0.076693234348460468 0.09946001909497626 0.034891533855313579 0.048637966914520568 0.10084341846971188 0.030238663268166065 0.058231046881708867 0.046819415839356338 0.090837503963404717 0.081449666912636429 0.081287050225241145 0.085071182842899842 0.12354734797507823 0.081579505400735497 0.12027134275884135 0.070129368625473726 0.10560507892240772 0.095495725283900407 0.092082811871466427 0.050706247725382791 0.096922742631648448 0.10008319932585422 0.096900739861858612 0.10975911102958075 0.12103273847060528 -0.027759637539381678 -0.027759637539381678
leaf_weight=3367.2097043395042 17.184724509716034 2712.5777340196073 549.23548948019743 16.765830311924219 13.837752342224119 11.241787821054457 10.317346584051849 11.224078085273506 11.825638469308613 18.411268029361963 13.130208373069765 11.934876970946794 14.180325891822575 9.6238038018345851 14.405614696443079 10.328309584409 17.54058376327157 11.073092333972454 11.902781847864388 10.56645270437002 9.5235807038843632 10.027779199182985 12.732689887285234 14.429024882614611 10.134145043790342 10.529404487460853 12.938888065516947 10.591802671551703 9.4183574281632918 11.830414842814209 11.194223988801239 18.730478655546904 13.385007094591854 10.041786391288044 17.920082818716764 15.082078985869886 15.581590697169302 18.111107461154464 17.689660526812077 13.004054952412842 15.814207162708042 12.404723312705753 11.58930169045925 9.6414314210414869 10.786093708127739 14.072983559221028 10.085969742387531 9.4652851000428218 18.788405943661928 9.5041938908398169 14.475890778005121 11.541628029197453 9.6084028258919769 15.784777771681545 15.481820952147244 12.545999046415089 14.178066875785587 12.377418693155052 15.39316316321492 12.964686490595339 9.9142090789973754 11.298855990171431 18.421187605708838 14.997446462512015 11.220777135342358 10.241785649210216 16.947677571326494 13.428012780845163 11.303719796240332 16.406367674469948 9.7929113209247571 12.086662266403435 18.379031751304865 11.615361068397762 16.645931370556355 17.170385267585516 10.291037738323213 12.09733999148011 9.9706940650939959 13.008273936808108 9.926974758505823 15.019169703125952 15.127718333154915 11.722372211515905 16.454374372959137 12.994981020689012 10.117915216833351 10.821808837354185 10.30755455419421 14.233091294765471 12.078121028840544 10.66432463377714 11.254150073975323 9.4406603910028917 10.16126488521695 13.42203541472554 11.234780807048084 15.270363941788675 12.121986541897057 17.620976153761148 13.266711294651033 11.778690069913862 15.434288274496796 9.6308978423476237 10.067627813667064 10.595388706773518 11.608135420829056 9.7759712450206262 16.897825017571453 9.7861220464110357 9.5147352889180166 10.071719035506247 9.5786377415060979 11.934589911252262 12.981846097856758 9.793691970407961 13.601214341819285 13.818331256508825 9.9953929260373133 17.735844057053328 13.229937620460985 11.638561420142649 17.882220018655062 9.4612915962934476 11.45076382532716 10.018242221325638 13.535743176937101 17.73506872728467 18.724655911326408 9.8628484569489938 10.974058680236341 9.5545171685516816 10.550807125866415 11.242792394012211 12.008154764771463 12.348728157579897 10.533737413585184 11.324338059872387 9.4794285073876363 10.790733534842731 9.6497239544987661 13.717272676527498 13.111581407487391 9.7754985801875609 10.22100523859263 10.189071439206598 13.259959388524296 16.968504946678877 9.7309459224343282 17.386192549020056 12.07580381631851 11.571255613118408 9.2251213341951352 9.9722935259342176 9.6086660511791724 10.410738427191971 10.392356608062984 12.323521137237547 10.860429167747496 10.585571102797983 15.18322968110442 10.24837641045451 9.7278116978704912 13.216052711009977 15.982611641287802 12.61653422936797 9.655818857252596 15.781723860651253 11.624384783208368 9.3727249279618245 11.171678286045788 9.6656459681689721 12.440281338989733 10.51193969324231 9.5410225391387922 221.84614250063896 274.76446837931871
leaf_count=68848 336 55463 11230 295 264 202 195 200 214 328 239 222 258 173 263 189 316 201 218 191 173 181 228 259 185 190 233 190 174 214 202 339 249 183 321 278 279 334 324 235 290 223 203 179 198 254 182 173 342 173 264 211 173 285 278 226 256 225 280 236 181 205 334 272 205 191 316 242 203 297 172 216 334 212 301 315 188 223 176 235 181 273 275 211 301 239 180 195 186 259 219 193 203 173 185 239 204 280 218 327 241 215 280 174 184 190 209 177 319 180 180 187 173 219 237 178 246 250 183 320 241 211 324 172 211 182 247 324 340 178 194 178 188 204 218 222 191 204 173 197 182 248 240 179 189 187 238 310 176 313 220 211 174 185 177 193 195 225 199 190 277 186 172 237 287 231 172 288 212 172 201 178 226 188 172 4536 5618
internal_value=0 0.662207 2.22363 3.47522 3.49665 3.50795 3.27239 3.54701 3.13003 3.58513 3.38023 3.19036 3.00375 3.54809 3.2912 3.0905 3.28981 3.57438 3.7905 3.71094 4.66689 3.64824 3.96253 3.4733 3.4534 2.95767 4.59009 5.06778 3.17089 3.02505 3.55288 3.21957 2.40065 3.5344 3.47437 3.53694 4.63802 2.92739 3.67639 3.63754 3.72579 3.48536 4.00924 3.50963 3.19083 3.5525 3.82713 3.12854 3.63267 3.55053 3.66849 3.55445 3.49142 3.51349 3.4473 3.49861 3.807 2.93151 3.47264 3.70614 3.3806 2.64726 3.41724 4.07609 4.33256 2.7377 2.36012 3.8428 4.04939 4.39276 4.28309 3.91285 2.96957 3.3517 2.90083 3.61701 3.52009 3.731 4.19655 4.04327 3.37261 3.05397 3.43173 3.45499 3.58839 3.02885 4.70596 3.46679 3.68009 3.55936 3.31128 3.95239 3.15662 2.75344 3.47933 4.42277 3.61505 3.32864 3.79523 3.10608 3.02752 2.84762 3.90732 4.2329 3.68543 4.75257 4.35754 1.98309 2.4695 2.76455 2.42953 2.89283 4.1825 2.90146 2.64401 3.34775 3.70991 3.59075 3.37162 3.76166 2.63696 3.71386 3.61537 3.42093 2.94898 3.86112 4.49973 2.39906 2.88909 3.33847 4.51088 1.89086 3.6303 3.44092 3.54121 3.2073 2.63817 3.57373 3.27289 4.02014 2.14581 4.81237 3.71656 3.46295 3.28199 2.80003 3.74644 4.13148 3.56335 3.34568 3.68946 3.2012 2.00295 2.59028 2.71634 2.33994 3.07124 2.27747 2.88015 3.61569 2.68188 2.71791 4.15282 3.64707 3.8349 3.31661 3.49472 3.26871 3.82478 2.30726 4.0007 4.14837 3.41133 4.44949 4.34584 -1.05437 -1.05437
internal_weight=0 5694.69 2982.12 2158.12 2140.93 2127.09 524.913 179.206 345.708 1602.18 146.102 325.74 193.364 117.789 76.2768 65.035 125.933 1585.42 247.473 226.876 20.5967 216.31 82.7804 46.517 133.53 32.088 36.2634 23.3245 111.753 94.2126 123.502 57.4521 32.3579 1337.94 940.381 843.86 33.5017 96.5212 397.561 379.15 316.602 171.3 145.302 57.0883 62.5478 44.8581 47.4469 30.7851 155.486 143.081 124.293 109.817 810.358 783.498 639.332 581.491 144.166 57.8401 568.945 160.86 408.086 42.0553 392.693 24.9117 88.2134 41.5951 27.1895 66.0496 52.6216 41.4274 33.1037 23.3107 30.7565 61.8547 28.2613 147.895 130.725 33.5934 76.9926 65.4033 367.781 75.5568 55.8539 292.224 222.555 69.6689 21.8403 200.715 118.928 108.621 84.3768 32.9037 81.7867 43.516 22.2394 24.2438 38.2707 51.2478 25.117 34.0754 40.8347 26.8608 129.988 52.6856 77.3024 31.8119 21.2165 19.7029 67.4304 41.3075 31.5213 22.0066 31.2707 51.473 37.24 46.0317 98.2754 84.6741 65.6289 27.7776 23.521 107.204 95.5652 80.0833 38.6471 41.4362 23.554 29.1858 38.7216 19.997 30.6726 18.9729 34.7308 20.8737 37.3609 24.3569 19.999 36.2381 24.9137 41.512 19.9671 25.021 23.4399 132.377 80.8014 29.7828 51.5752 30.2285 51.0186 41.2876 29.462 21.3468 26.1229 68.7435 58.7712 28.5218 30.2494 24.2581 26.1308 21.3763 28.3134 20.6407 20.7019 51.8106 38.5945 22.6119 20.1852 27.0165 21.692 19.5937 21.7225 21.4961 25.707 20.1357 19.0452 3589.06 824
internal_count=184951 111567 56104 39256 38920 38656 9604 3253 6351 29052 2665 5974 3565 2149 1401 1199 2303 28757 4470 4096 374 3905 1490 839 2415 580 651 418 2045 1729 2234 1042 601 24287 17100 15327 600 1773 7187 6859 5719 3109 2610 1036 1140 816 857 562 2819 2596 2254 1990 14727 14234 11624 10575 2610 1049 10349 2929 7420 764 7140 453 1574 770 507 1192 950 748 588 416 559 1128 513 2693 2378 615 1369 1166 6687 1373 1015 5314 4044 1270 391 3653 2157 1971 1537 597 1496 801 404 434 695 936 457 628 742 493 2354 950 1404 572 382 358 1262 769 589 409 569 940 681 835 1779 1533 1188 503 429 1949 1738 1460 707 753 429 535 703 363 542 352 624 378 675 440 364 657 453 748 377 451 429 2409 1471 548 938 548 923 747 533 390 493 1270 1085 527 558 444 479 387 516 381 366 938 701 414 362 492 396 361 389 392 467 361 345 73384 16848
shrinkage=0.0263282


Tree=2
num_leaves=177
num_cat=0
split_feature=0 0 1 0 0 3 2 2 2 0 3 3 2 2 3 3 3 3 3 2 2 1 2 1 0 1 3 3 1 2 2 1 2 3 3 2 1 2 3 1 1 1 3 1 1 3 1 3 1 3 0 0 0 2 2 0 3 3 2 0 0 2 2 0 1 2 3 3 3 3 1 0 1 2 1 3 3 0 3 3 3 2 2 2 3 3 0 2 2 0 0 0 1 2 2 3 2 1 1 1 1 3 2 0 0 1 3 3 3 1 2 3 2 0 0 1 1 3 2 2 3 3 0 3 3 3 3 3 0 1 2 1 1 0 2 2 1 1 0 3 2 3 2 1 2 1 2 2 2 2 0 0 2 1 3 1 3 2 2 3 3 2 1 2 3 2 1 3 1 3 1 2 2 0 0 0
split_gain=6196.75 13842.8 10406.1 97.3645 32.3082 28.5768 15.3475 17.7989 15.964 14.801 18.704 22.6907 12.587 15.6987 19.9828 13.3711 12.5743 10.5238 11.1471 13.3933 15.984 12.2956 18.0507 13.4368 14.954 11.8321 13.8373 13.4526 10.4421 12.6059 35.2183 22.042 20.4959 14.2339 15.485 17.5123 26.0872 20.5748 15.4918 13.2664 19.2851 11.993 11.3043 23.9337 35.9185 24.1919 19.0336 19.1107 11.1419 13.5338 12.9813 18.6044 10.979 10.8677 16.0373 16.0222 12.3168 17.1552 12.1967 10.5655 25.3451 12.8638 15.4177 10.5271 10.4083 10.3978 10.3507 26.4615 9.84844 17.4384 15.4281 9.80941 14.6817 19.4189 15.1211 11.7626 13.8067 11.1237 10.7732 10.0296 9.74607 9.5798 9.35311 20.5672 9.36349 22.826 14.7031 14.6621 14.6456 14.3834 19.7218 13.3992 18.966 12.7401 10.1222 10.324 9.17541 10.49 16.4286 8.99283 8.98348 14.5696 8.9322 8.89196 8.63883 8.0901 7.95377 8.27856 12.3885 9.51972 9.11124 8.68376 7.9189 9.39674 11.712 8.13051 12.4434 7.80357 7.61645 10.4174 8.03653 7.5834 7.57608 11.0104 9.43846 7.44721 11.4769 7.33614 7.19261 7.53991 6.96308 6.95904 6.89338 7.02418 14.1655 25.3473 21.9435 20.1939 15.9355 14.4975 16.7617 9.13117 6.67942 7.03823 6.258 6.22058 6.2091 15.0586 6.14763 13.9648 6.10791 7.58051 6.1029 7.5538 6.09293 11.1831 5.81145 14.4454 9.45231 5.3611 5.27401 5.00394 4.91596 4.88761 4.81121 4.6075 4.37864 3.97433 3.68134 3.59834 3.58924 3.25716 3.19663 2.85368 4.54747e-13 1.13687e-13
threshold=398.50000000000006 700.50000000000011 699.90002441406261 401.50000000000006 698.50000000000011 11499.500000000002 13661904.500000002 16007068.000000002 11208700.000000002 639.50000000000011 11883.500000000002 11574.500000000002 17680665.000000004 23055233.000000004 11835.500000000002 11907.500000000002 10014.500000000002 11469.500000000002 11391.500000000002 4771031.5000000009 33040305.000000004 21.899999618530277 19821595.000000004 30.899999618530277 422.50000000000006 222.8999938964844 10634.500000000002 10754.500000000002 207.8999938964844 39085824.000000007 37762178.000000007 490.89999389648443 36475988.000000007 10071.500000000002 10564.500000000002 10639511.500000002 234.8999938964844 14704207.000000002 10589.500000000002 552.90002441406261 373.89999389648443 648.90002441406261 11218.500000000002 527.90002441406261 495.89999389648443 11173.500000000002 596.90002441406261 11272.500000000002 150.8999938964844 10076.500000000002 613.50000000000011 637.50000000000011 590.50000000000011 19276665.000000004 31152321.000000004 584.50000000000011 10699.500000000002 10269.500000000002 10055826.500000002 542.50000000000011 562.50000000000011 29014036.000000004 14796206.000000002 516.50000000000011 665.90002441406261 15354721.000000002 10634.500000000002 10714.500000000002 11619.500000000002 11772.500000000002 478.89999389648443 453.50000000000006 602.90002441406261 22865193.000000004 408.89999389648443 10289.500000000002 10203.500000000002 562.50000000000011 10178.500000000002 10325.500000000002 11743.500000000002 14704207.000000002 37963292.000000007 35003354.000000007 11637.500000000002 11715.500000000002 450.50000000000006 29195013.000000004 27804017.000000004 549.50000000000011 631.50000000000011 626.50000000000011 343.89999389648443 27522806.000000004 26307332.000000004 11847.500000000002 29474304.000000004 482.89999389648443 311.89999389648443 311.89999389648443 378.89999389648443 10300.500000000002 13374560.000000002 529.50000000000011 502.50000000000006 340.89999389648443 11144.500000000002 10914.500000000002 10999.500000000002 623.90002441406261 17207864.000000004 10674.500000000002 9295076.5000000019 476.50000000000006 635.50000000000011 568.90002441406261 402.89999389648443 10784.500000000002 25293526.000000004 33705178.000000007 11079.500000000002 10428.500000000002 542.50000000000011 11677.500000000002 11659.500000000002 10839.500000000002 11114.500000000002 10259.500000000002 610.50000000000011 346.89999389648443 31626379.000000004 275.89999389648443 231.8999938964844 447.50000000000006 20958051.000000004 24919756.000000004 349.89999389648443 284.89999389648443 558.50000000000011 10909.500000000002 12531665.000000002 11004.500000000002 27522806.000000004 177.8999938964844 13095644.000000002 9.8999996185302752 11786736.500000002 24821075.000000004 21610214.000000004 27522806.000000004 628.50000000000011 516.50000000000011 18720564.000000004 493.89999389648443 10589.500000000002 102.90000152587892 11440.500000000002 20671045.000000004 14987041.000000002 11711.500000000002 10387.500000000002 29287875.000000004 302.89999389648443 23147700.000000004 11711.500000000002 20106373.000000004 488.89999389648443 11418.500000000002 299.89999389648443 11793.500000000002 416.89999389648443 17961787.000000004 29847815.000000004 462.50000000000006 292.50000000000006 675.50000000000011
decision_type=2 2 2 2 2 2 2 2 2 2 2 2 2 2 2 2 2 2 2 2 2 2 2 2 2 2 2 2 2 2 2 2 2 2 2 2 2 2 2 2 2 2 2 2 2 2 2 2 2 2 2 2 2 2 2 2 2 2 2 2 2 2 2 2 2 2 2 2 2 2 2 2 2 2 2 2 2 2 2 2 2 2 2 2 2 2 2 2 2 2 2 2 2 2 2 2 2 2 2 2 2 2 2 2 2 2 2 2 2 2 2 2 2 2 2 2 2 2 2 2 2 2 2 2 2 2 2 2 2 2 2 2 2 2 2 2 2 2 2 2 2 2 2 2 2 2 2 2 2 2 2 2 2 2 2 2 2 2 2 2 2 2 2 2 2 2 2 2 2 2 2 2 2 2 2 2
left_child=174 2 3 -2 5 16 8 128 9 10 11 -7 80 14 122 -16 -5 18 21 -20 156 22 145 -23 25 27 100 -25 48 30 32 -31 33 65 35 112 -37 102 -36 40 -34 42 43 44 45 66 47 81 49 -26 59 165 -46 56 142 -56 57 -50 -58 63 -61 62 -62 104 -43 -30 -40 162 -13 70 164 79 74 -74 75 76 -73 -75 -76 -39 -9 -44 83 84 89 93 -87 88 94 161 -91 92 -89 -86 95 -88 97 98 -49 -10 -27 -102 127 -101 118 -28 107 109 -109 111 -110 -45 113 -35 115 116 -115 -113 120 -120 173 -32 124 -124 -14 -66 -127 -38 129 -8 -24 -12 -69 -134 136 -136 137 -135 -139 -138 -141 172 143 -55 -100 -18 -19 -148 -77 -150 151 -85 -80 -154 -53 -156 158 -158 -21 -11 -155 -15 -68 -65 -70 -52 -107 -160 -71 -84 -123 -164 -137 -51 -1 -4
right_child=1 -3 175 4 -6 6 7 12 99 159 131 68 13 82 15 -17 17 146 19 20 -22 23 130 24 28 26 105 -29 29 31 121 -33 39 34 38 36 37 71 41 -41 -42 64 46 106 52 -47 -48 96 53 50 51 154 -54 54 55 -57 58 -59 -60 60 61 -63 -64 163 125 -67 67 132 69 168 -72 72 73 77 78 148 -78 -79 152 -81 -82 -83 169 150 85 86 87 91 -90 90 -92 -93 -94 -95 -96 -97 -98 -99 144 103 101 -103 -104 -105 -106 166 -108 108 110 -111 -112 117 -114 114 -116 -117 -118 -119 119 -121 -122 170 123 -125 -126 126 -128 -129 -130 -131 -132 -133 133 134 135 141 139 138 -140 140 -142 -143 -144 -145 -146 -147 147 -149 149 -151 -152 -153 153 160 155 -157 157 -159 167 -161 -162 -163 171 -165 -166 -167 -168 -169 -170 -171 -172 -173 -174 -175 -176 -177
leaf_value=-0.027720445795864274 0.020244033877205404 -0.027720445795864274 -0.027720445795864274 0.10598583756186651 0.043268328930181919 0.10415640804330281 0.064077598868402197 0.11205901978819172 0.083363690327406259 0.076758394256857945 0.085915974372778481 0.049638946728064619 0.084156084234766768 0.067667271284263406 0.10619495426608289 0.066229816311894729 0.099671674941794408 0.082323716928527357 0.1022173357791315 0.055871393492441926 0.095672250725162958 0.062191315114834105 0.070435539265501307 0.045020397064405727 0.11383302727701126 0.073677294485670647 0.090073900609158986 0.078873982165527282 0.051287416537628736 0.12374282519237363 0.038210280257637057 0.074182928183064031 0.090085052028046786 0.11261598083883266 0.055115829924322644 0.04804325880423236 0.059899137421256313 0.089107096217973997 0.10076601066960246 0.080280761769941839 0.13585161111954347 0.10952961136451529 0.085007574925023394 0.095974795371071078 0.12370682206609755 0.049771730259777963 0.1188255212415585 0.096718501928198461 0.089096819583513787 0.079354512681709413 0.041420920880543326 0.094715285778661326 0.090064795222531482 0.098167659029999757 0.085930860382097934 0.12696776736659193 0.074278652621190822 0.12995593388523569 0.10900393501506965 0.12470193446712084 0.095634053096776431 0.11007932228993007 0.06018166404522747 0.078761468550235914 0.067108279165910181 0.079642636458343671 0.072843993674596277 0.1005959386308298 0.067386285881906552 0.048627460278668898 0.11316225374639909 0.091473335960142718 0.079323514410067186 0.099719021532456958 0.094913942906714163 0.066823137206968336 0.12969852694318254 0.13813419830317078 0.088573375244330149 0.12426583207161429 0.077482990191647949 0.11481074769380865 0.099669744361040077 0.065520880810844104 0.12839198509845307 0.10171559880630146 0.042570424475100281 0.072726166400450307 0.03582859386935263 0.10848765637357777 0.058625645067936272 0.06211274694288705 0.11543071562970744 0.090957407697969742 0.092898207602720689 0.078289621639288182 0.054747650406394351 0.10078780701619974 0.045398482185531476 0.092497370027203846 0.078034260578716014 0.1191975095239278 0.048092185163822063 0.12608226753440166 0.10813114089281774 0.051114254526287643 0.088322865029725736 0.03511260332399084 0.084141826775074716 0.051392675883573637 0.05252532965475662 0.056399153795210141 0.11810700262811583 0.076913623155565033 0.10873069847505974 0.068278042247674017 0.10759433661269882 0.082510029542894436 0.10862919287584798 0.074995227364640288 0.097967719452888222 0.053397012893958443 0.029401214780841303 0.063366369390954635 0.050299962252958234 0.10952965851468974 0.074178429350640201 0.089208179719261427 0.074136761657196154 0.033359274264390289 0.098427516499336717 0.11228330012713351 0.10035571309988173 0.079812992234705615 0.044096809015162032 0.099124505888532138 0.05867110241400781 0.094482352599880096 0.13821219062681947 0.068862662355246573 0.11149225659805946 0.065884068462144174 0.059140138453422114 0.07067881003390207 0.07219710824741471 0.12707914825951688 0.12967728281776458 0.087595529885909351 0.11330478976762511 0.07400855290805651 0.07689246608729132 0.039516596727734533 0.053987326688168517 0.064866132970028606 0.063227806260436281 0.094980419375203046 0.074128680332558566 0.032281613266980091 0.07206515956290524 0.055193516614063284 0.088635274696874641 0.043115513334939223 0.03990945389735575 0.055262198076567071 0.090054273519320563 0.066190281904099299 0.071441118949401403 0.092393558321482827 0.068339748471500941 0.080986019820868352 0.073872113400524408 0.06050108349817656 0.082201226583234116 0.064486452762584898 -0.027720445795864274 -0.027720445795864274
leaf_weight=2563.394520252943 17.512222409248352 2645.778440464288 736.30330542102456 18.633840307593346 14.417922914028166 19.100697670131922 10.285745125263931 11.650090254843237 14.635907240211962 13.809292469173668 11.081198126077654 11.517499480396507 10.557268276810648 11.54913790151477 10.586096309125425 12.84289940074086 10.705542597919704 11.19969257712364 11.109564259648321 16.612351715564728 15.310892410576342 19.246305592358112 14.693274907767774 16.5584357380867 11.313707467168568 11.895007666200398 10.471574481576679 15.997294798493384 15.918502498418091 14.211564045399429 10.317860160022972 11.062964271754025 12.249548450112345 17.01326622068882 15.181521534919737 12.790333412587641 10.183047547936441 11.450632587075235 18.385010201483965 11.901333671063183 13.324140150099991 18.935776140540838 13.494481738656761 12.730009552091358 17.511847089976076 17.57631965354085 12.540604524314402 13.917597025632857 11.231089204549791 17.881514616310596 10.222939122468235 20.356954988092184 10.915495049208401 12.299628280103208 15.697010163217785 11.373410124331711 14.659075628966095 19.472909223288298 13.438784494996069 16.710002742707729 17.6585265211761 12.190249189734457 16.399838373064995 13.792742032557728 10.783744070678948 20.519668847322464 10.430457405745985 15.954682786017655 15.999131709337236 11.673219688236715 11.366765826940535 16.947720155119899 14.21059951558709 10.296695709228517 15.827438432723282 10.812868814915417 10.675758093595503 10.607911877334116 10.377109676599501 11.052951145917175 10.973864167928694 16.762745246291161 17.511396724730734 17.432498209178451 10.430081997066738 15.612261779606341 10.434701465070249 13.842403993010523 10.300272107124327 11.761034782975914 10.326306343078612 12.256569366902111 15.043126333504913 15.921760872006415 10.664001207798718 12.128470491617916 11.439015801995991 13.478671349585055 10.386621810495855 10.473610538989307 10.414651907980444 13.935791626572607 10.721359796822069 11.425784483551977 12.364615261554716 12.296739853918554 11.98219447955489 12.913707360625265 11.490654811263086 12.253411140292881 14.035766605287789 14.957732681185009 11.69766880571842 19.794982511550188 18.650182083249092 15.287566248327492 17.060860890895128 16.896146569401026 16.362494051456455 10.466403815895317 10.648442126810549 10.33432372286916 14.212070077657701 12.37745541334152 12.425780180841683 13.772963706403972 11.83686590194702 14.13968415930867 10.303428739309309 12.00132032856345 10.606556091457604 18.558725789189339 13.935179196298121 16.33842333778739 17.138537179678679 14.073315586894752 20.025041963905096 10.73590373247862 12.503930307924746 13.847131345421078 11.877565983682869 17.084862880408764 10.862846232950686 13.590363796800373 14.434228058904408 12.376578465104101 10.509478237479927 13.422541566193102 10.791933950036766 14.955985628068445 10.781726736575363 14.019814088940619 19.876162059605122 14.43961998447776 18.725521091371778 13.044492375105618 12.612517490983011 10.460094042122362 14.977501269429924 18.966051641851664 11.725018199533222 11.468088231980799 10.072619691491129 11.050681512802838 10.920473750680683 10.606808062642811 18.244967836886644 12.013913512229918 15.013160601258276 12.070288367569445 13.93947586417198 11.296422328799961 17.183621607720852 17.911492321640253 937.27809166908264 67.405025627464056
leaf_count=53736 336 55463 15435 295 264 313 177 202 240 234 185 197 182 198 179 221 172 184 186 278 255 327 247 278 190 198 178 271 270 233 172 183 205 274 254 215 181 189 309 200 220 318 223 214 291 295 209 232 189 299 172 337 183 206 263 190 249 310 224 279 297 202 276 230 182 342 175 268 277 202 190 281 237 172 258 180 178 175 173 180 188 282 293 293 176 260 179 237 177 203 179 207 257 270 183 208 193 225 175 172 173 229 188 176 205 208 200 220 192 207 234 255 190 326 301 251 275 283 272 174 178 173 250 210 211 233 197 240 177 207 174 305 234 270 290 240 339 179 209 234 196 287 183 228 242 199 174 224 175 255 182 239 331 242 308 217 208 175 250 322 196 199 175 185 187 177 305 200 253 207 234 195 289 301 19648 1413
internal_value=0 0.632544 2.0514 3.11799 3.13571 3.14504 2.94991 2.83082 3.17748 3.03973 3.19631 2.98111 2.89865 2.84715 2.44039 3.20142 3.20851 3.19967 3.18839 2.85204 2.71242 3.20804 3.70445 3.1925 3.20297 2.84747 3.06055 2.34181 3.23052 3.17851 3.16107 3.87607 3.1962 3.16726 3.192 3.35993 3.21466 3.29226 3.08983 3.92141 4.3273 3.11753 3.06776 2.98785 3.14321 3.02138 3.35611 3.2016 3.37224 3.25418 3.20507 2.85117 4.208 3.62037 3.33462 3.9187 3.93052 4.36834 3.45209 3.35394 3.68089 3.29951 2.98399 3.16762 3.55888 2.5545 3.10747 3.04519 2.73764 2.88872 3.32124 3.41961 3.33818 3.91482 3.18976 3.54297 4.03547 4.52795 2.87596 4.04038 3.61923 3.8559 2.96907 2.8962 3.04995 3.1893 2.97167 2.80724 2.40267 2.6587 3.23517 3.23527 3.60701 4.01753 2.72563 2.34618 2.89059 3.06829 2.8039 3.77321 3.51073 3.85868 2.58706 4.17879 3.33388 2.6627 2.58681 2.49024 2.13181 2.73265 2.53559 2.94721 3.71305 3.61009 3.44972 3.20646 3.46078 2.66821 3.20341 3.6276 2.95835 2.16947 2.0807 1.71725 2.50119 3.24603 3.53957 2.92225 2.12495 1.80553 3.12102 3.89034 3.19323 3.13244 3.06968 2.71982 3.33816 3.88338 4.4823 2.86648 3.36315 3.09027 2.90441 3.18055 2.31626 4.34392 3.74137 4.02897 3.17086 3.43659 2.27101 2.04836 2.67143 2.51529 3.17039 2.89671 2.50084 2.09498 2.71559 2.44147 2.86832 2.10553 2.204 2.59451 2.90875 2.05232 2.40264 3.08086 2.26819 3.49611 2.47473 1.9293 3.41159 2.73146 -1.05288 -1.05288
internal_weight=0 5788.64 3142.87 2339.16 2321.64 2307.23 566.311 371.77 194.542 158.006 125.231 95.5909 339.179 316.556 73.0016 23.429 1740.92 1722.28 1687.15 93.0968 81.9873 1594.05 48.382 1545.67 1526.42 109.814 77.2587 32.5557 1416.61 1036.28 1011 25.2745 976.411 938.936 902.498 341.387 241.883 229.092 561.111 37.475 25.5737 545.929 490.6 384.146 276.886 248.459 106.454 93.9134 380.333 257.707 246.394 72.9567 28.4273 122.625 63.8233 27.0704 58.8019 30.704 28.0979 173.437 62.9586 46.2486 34.0584 110.478 55.3293 36.4382 230.883 212.498 76.4903 64.9728 38.2864 194.048 171.545 35.1152 136.43 64.1843 27.6235 20.9046 72.2453 22.5036 22.624 30.2572 243.554 213.972 171.738 126.634 100.282 84.6695 43.5274 45.1046 22.0873 41.1421 28.8855 26.3518 33.2272 22.5632 63.6561 52.2171 38.7384 36.5353 36.2455 24.3504 35.0441 21.8994 85.635 41.0133 107.26 95.2774 38.4401 56.8373 25.5264 44.5839 99.5045 87.8069 70.7936 52.1434 36.8558 31.8539 73.2703 26.8289 46.4414 34.5917 49.5726 26.5895 22.983 36.3936 25.6098 24.3227 32.5905 22.2871 25.2998 29.6399 180.698 164.744 150.808 65.4803 85.328 39.5783 23.2398 45.7497 25.7247 48.3418 36.7528 25.89 24.8208 23.0821 35.1317 23.932 36.5608 25.7479 42.234 31.4523 56.4179 46.0408 52.127 31.77 66.6764 23.0726 43.6038 32.7753 26.1646 23.0172 31.7995 24.8434 26.9196 20.8297 30.5417 26.9914 26.6864 29.5817 24.2738 21.369 31.2569 35.793 3500.67 803.708
internal_count=184951 111567 56104 39256 38920 38656 9604 6351 3253 2665 2109 1619 5790 5400 1253 400 29052 28757 28175 1552 1366 26623 792 25831 25504 1840 1291 549 23664 17323 16907 416 16328 15703 15091 5663 4046 3831 9428 625 425 9174 8244 6463 4658 4184 1781 1572 6341 4299 4109 1211 474 2042 1070 453 972 499 473 2898 1054 775 573 1844 930 612 3889 3580 1306 1109 654 3222 2853 584 2269 1069 459 347 1200 369 390 505 4147 3647 2933 2154 1708 1448 747 779 382 701 494 446 570 387 1067 874 649 588 600 402 609 348 1429 691 1805 1605 646 959 426 752 1617 1427 1153 852 601 538 1224 446 778 579 853 460 393 612 430 421 561 384 421 490 3035 2767 2533 1106 1427 658 388 769 430 816 617 434 417 371 582 398 610 430 714 532 942 769 862 525 1111 383 728 556 438 397 545 415 464 349 513 450 455 500 407 370 529 600 73384 16848
shrinkage=0.0263282


Tree=3
num_leaves=182
num_cat=0
split_feature=0 0 1 0 0 3 2 1 2 2 1 3 1 1 0 0 2 2 2 1 3 0 0 3 3 0 0 3 0 2 2 2 2 0 1 0 0 0 2 0 3 2 3 3 1 2 1 1 3 3 2 3 2 0 3 3 2 1 0 0 3 1 0 3 2 2 1 2 2 1 2 0 3 1 2 2 1 2 1 1 2 1 1 1 1 1 1 1 2 3 3 2 1 0 0 0 3 3 0 2 0 3 3 2 2 3 2 1 2 3 2 1 3 3 1 2 1 2 3 1 3 0 2 1 2 1 1 1 3 3 3 1 0 1 2 1 1 0 1 3 0 0 2 3 2 2 2 2 2 2 2 3 2 1 0 1 1 0 1 2 0 0 3 1 1 3 0 3 3 2 2 3 2 1 2 3 2 2 3 0 0
split_gain=5926.58 12626.1 8972 78.3347 25.4355 21.8222 11.8373 15.014 12.0266 12.0343 11.3011 20.3336 12.1806 14.5314 14.8954 11.8889 18.2233 11.0271 10.3085 9.63706 9.38983 8.81175 11.4725 11.895 9.89031 8.64579 8.50014 8.70031 9.10893 12.8481 7.45049 21.455 27.4131 19.5638 17.6683 7.29297 9.98246 13.1329 14.7585 14.4507 10.1161 9.74323 9.07334 10.3987 11.9389 8.53116 7.79853 13.6985 19.1594 13.28 12.7927 8.87584 8.11567 8.07985 9.16479 16.5021 19.7692 11.3777 27.3068 24.1292 21.0184 8.30383 7.87968 7.55979 14.5361 13.611 12.9051 10.0714 8.40856 11.1119 7.52805 10.9282 12.2345 7.87434 7.28487 14.5976 14.9914 12.5051 14.0137 11.4734 14.6555 11.0887 20.015 19.3834 32.9633 21.2609 20.4199 15.6315 11.7648 9.97582 19.2759 8.91425 12.8697 8.41433 7.96163 20.139 8.7121 7.84158 7.14728 7.51034 9.44369 13.7283 19.7599 11.4416 7.22517 7.07578 7.04909 12.0507 9.23932 9.71647 7.01051 7.979 6.99869 6.95141 8.68768 10.4282 6.92293 12.8765 12.9664 6.88368 9.23189 6.86261 6.82631 6.72024 6.70953 8.73094 24.3191 7.9593 14.2987 7.51596 7.22689 6.61485 6.60223 6.57901 6.50225 6.4071 6.35304 6.32604 6.19247 6.04664 5.89027 8.67864 11.6019 7.42947 10.1347 10.6285 6.47936 12.51 5.90051 5.7692 12.4981 10.7663 7.2271 5.5821 5.47965 8.95453 8.68383 6.44467 8.83017 5.47031 5.23208 11.8944 5.18546 5.07723 5.03741 4.98 4.76817 4.71524 4.21931 4.07361 3.83825 3.74946 3.69709 3.56875 3.43071 3.25745 3.17213 2.80727 0.584095 4.54747e-13 1.13687e-13
threshold=398.50000000000006 700.50000000000011 699.90002441406261 401.50000000000006 698.50000000000011 11499.500000000002 13661904.500000002 39.900001525878913 11208700.000000002 9101666.5000000019 302.89999389648443 11677.500000000002 547.90002441406261 577.90002441406261 520.50000000000011 533.50000000000011 33610292.000000007 29667462.000000004 7069372.0000000009 228.8999938964844 10014.500000000002 651.50000000000011 655.50000000000011 11413.500000000002 11287.500000000002 653.50000000000011 631.50000000000011 11851.500000000002 526.50000000000011 3679551.2500000005 12059519.500000002 14896658.000000002 15826183.500000002 476.50000000000006 195.8999938964844 409.50000000000006 453.50000000000006 483.50000000000006 39542102.000000007 520.50000000000011 10071.500000000002 26591653.000000004 10478.500000000002 10814.500000000002 343.89999389648443 37668788.000000007 57.900001525878913 123.90000152587892 10764.500000000002 10163.500000000002 27243412.000000004 10203.500000000002 38722944.000000007 558.50000000000011 10949.500000000002 10729.500000000002 32668309.000000004 393.89999389648443 613.50000000000011 615.50000000000011 11311.500000000002 413.89999389648443 551.50000000000011 10228.500000000002 28660035.000000004 36475988.000000007 385.89999389648443 25293526.000000004 18633394.000000004 305.89999389648443 34078902.000000007 441.50000000000006 11014.500000000002 284.89999389648443 6308622.5000000009 6871920.5000000009 51.900001525878913 5358080.0000000009 470.89999389648443 102.90000152587892 2451892.7500000005 648.90002441406261 570.90002441406261 402.89999389648443 296.89999389648443 138.8999938964844 447.89999389648443 522.90002441406261 9009455.0000000019 10524.500000000002 10433.500000000002 3013822.2500000005 388.89999389648443 518.50000000000011 523.50000000000011 476.50000000000006 10879.500000000002 10819.500000000002 696.50000000000011 35178634.000000007 667.50000000000011 10559.500000000002 10300.500000000002 13846806.500000002 37963292.000000007 10544.500000000002 22278515.000000004 584.90002441406261 26771419.000000004 10504.500000000002 34078902.000000007 428.89999389648443 10739.500000000002 10340.500000000002 231.8999938964844 28844880.000000004 563.90002441406261 34640730.000000007 11632.500000000002 246.8999938964844 10819.500000000002 581.50000000000011 2451892.7500000005 75.90000152587892 28660035.000000004 527.90002441406261 453.89999389648443 123.90000152587892 10340.500000000002 10604.500000000002 10594.500000000002 189.8999938964844 554.50000000000011 311.89999389648443 18436327.000000004 545.90002441406261 385.89999389648443 529.50000000000011 257.89999389648443 10949.500000000002 584.50000000000011 512.50000000000011 30979429.000000004 11599.500000000002 20106373.000000004 26863355.000000004 24630884.000000004 30702784.000000004 18901529.000000004 22073049.000000004 25293526.000000004 11134.500000000002 32473364.000000004 419.89999389648443 474.50000000000006 436.89999389648443 331.89999389648443 600.50000000000011 465.89999389648443 14417998.000000002 556.50000000000011 610.50000000000011 10534.500000000002 352.89999389648443 393.89999389648443 11764.500000000002 619.50000000000011 10909.500000000002 11569.500000000002 1625872.2500000002 10055826.500000002 11599.500000000002 20671045.000000004 433.89999389648443 33610292.000000007 11764.500000000002 23888710.000000004 21893886.000000004 10739.500000000002 144.50000000000003 696.50000000000011
decision_type=2 2 2 2 2 2 2 2 2 2 2 2 2 2 2 2 2 2 2 2 2 2 2 2 2 2 2 2 2 2 2 2 2 2 2 2 2 2 2 2 2 2 2 2 2 2 2 2 2 2 2 2 2 2 2 2 2 2 2 2 2 2 2 2 2 2 2 2 2 2 2 2 2 2 2 2 2 2 2 2 2 2 2 2 2 2 2 2 2 2 2 2 2 2 2 2 2 2 2 2 2 2 2 2 2 2 2 2 2 2 2 2 2 2 2 2 2 2 2 2 2 2 2 2 2 2 2 2 2 2 2 2 2 2 2 2 2 2 2 2 2 2 2 2 2 2 2 2 2 2 2 2 2 2 2 2 2 2 2 2 2 2 2 2 2 2 2 2 2 2 2 2 2 2 2 2 2 2 2 2 2
left_child=179 2 3 -2 5 20 8 -8 9 18 140 116 15 -14 -15 17 153 173 19 123 -5 30 25 24 98 -23 27 28 29 -21 74 34 33 -33 139 136 45 41 39 63 -41 105 -43 -44 -45 70 160 48 -48 121 -50 -51 53 62 55 106 61 59 60 138 -59 -57 149 66 67 110 -39 68 -65 -70 71 113 162 -72 77 -76 -77 79 131 80 -22 82 83 84 85 97 -85 -88 -87 90 91 169 -93 -90 95 96 -91 -78 99 100 101 102 -24 -103 -101 -38 134 108 -108 -110 111 -66 -84 -37 176 135 117 118 168 -96 -121 -49 -122 -7 125 126 127 -102 -129 -127 -126 -79 -86 -10 -55 -116 -34 -135 -56 -32 141 143 177 -9 -145 -146 148 -148 -142 164 -151 152 -152 -17 155 -36 -156 158 -158 -130 -42 -162 -73 -26 -53 -20 -16 -35 -12 -81 -11 -118 -107 -13 -147 -125 -115 -143 -160 -1 -4
right_child=1 -3 180 4 -6 6 7 10 133 170 11 12 13 14 166 16 -18 -19 165 26 21 22 23 -25 163 -27 -28 -29 -30 -31 31 32 35 167 154 36 37 38 -40 40 46 42 43 44 -46 -47 47 49 50 51 -52 52 -54 54 57 56 -58 58 -60 -61 -62 -63 -64 64 65 -67 -68 -69 69 -71 73 72 -74 -75 75 76 81 78 -80 89 -82 -83 112 86 132 88 87 -89 93 94 -92 92 -94 -95 119 -97 -98 -99 -100 104 124 103 -104 -105 -106 172 107 -109 109 -111 -112 -113 -114 114 115 -117 171 -119 -120 120 122 -123 -124 175 130 129 -128 128 159 -131 -132 -133 -134 137 -136 -137 -138 -139 -140 -141 146 142 -144 144 145 174 147 -149 -150 150 151 -153 -154 -155 156 -157 157 -159 178 -161 161 -163 -164 -165 -166 -167 -168 -169 -170 -171 -172 -173 -174 -175 -176 -177 -178 -179 -180 -181 -182
leaf_value=-0.027682381408224502 0.019354893294925041 -0.027682381408224502 -0.027682381408224502 0.094109741177535011 0.040531083813886017 0.07757340253586148 0.045124979642922267 0.056995489626220724 0.07545100744799807 0.048284130418495171 0.033340142137620606 0.051916797631545782 0.10687518288949122 0.092956040996418493 0.052599809958884372 0.071228698026068682 0.04298936083534529 0.071477907451098027 0.079397089432726844 0.044360682215927372 0.04129020763909836 0.082800270439712831 0.059187810534039431 0.10037158780412052 0.072866631887729794 0.11401512937047388 0.060938719920657379 0.09869783091538438 0.090594002939966542 0.084758170930006621 0.070815970165706232 0.12417852683314407 0.05149988044249261 0.075145302435328701 0.028102550903955286 0.089280271456822699 0.043942755905956088 0.11407709383835299 0.10191268239834526 0.052715349821363465 0.076922668947771278 0.086447290339406499 0.047601187070341722 0.092085530968410489 0.058078695692636184 0.062554965310159319 0.070003128237079715 0.076936513956640432 0.08374552258574583 0.047958776587856577 0.12272339675637788 0.093578173727636188 0.050395615977815 0.080793855403640549 0.068784336225253331 0.05900891630672131 0.085546983034412938 0.12296874999449045 0.067037388682480256 0.094462117674535759 0.078027635451796987 0.030254401058706588 0.050132584329736919 0.098429151770712153 0.056255331861222814 0.089762233169827385 0.075286529252489007 0.10594402644085067 0.054969063938747169 0.086660528110758417 0.07891681198207609 0.090406210459994946 0.069219878573573507 0.10808137583358728 0.10182591137893045 0.10462734880926612 0.049402352509950363 0.065579042829408074 0.084305135609408777 0.081214782872818664 0.079206493993568314 0.099287668101933305 0.0668825980114226 0.12165953507895542 0.039833512184773177 0.076619683012962667 0.066930177273915203 0.10571911072632517 0.088275567079127551 0.052785784180858289 0.1185464211238272 0.090546861412626634 0.051798922690136792 0.11641312832509264 0.085183061015598027 0.10287447874018557 0.080609627354723198 0.078393380108075464 0.05856613566979036 0.10658772396266789 0.09741718190259914 0.077403924146131065 0.10640016716166731 0.04466064523260907 0.07818010295826372 0.0547923248718446 0.093974408851679583 0.10487878910755417 0.056897590518169498 0.083184598239242569 0.04407843504911009 0.085651555985472042 0.037538868196947933 0.048694383873738027 0.09438568133176499 0.058313576119270287 0.051822607333758985 0.083197801286938683 0.07653799335318591 0.044418466573146714 0.083881465505742187 0.10527102812769795 0.06000979443476824 0.06203506443362021 0.055765985340544777 0.086970022944685199 0.12298977700213212 0.051415483210307575 0.095507366078929221 0.057774219665743982 0.083105670414379149 0.038813434467575639 0.065189226546758627 0.083052889453075054 0.054330478284789388 0.069940992913246916 0.075704853188307122 0.1100939549835447 0.043254825530506656 0.094285144196007017 0.08354742179696395 0.058609675470865354 0.08049194916899019 0.05910652504632935 0.10760159071880857 0.087703153714561805 0.10754735492666531 0.075686704470045732 0.057855478619211073 0.04032439646628224 0.089718542780104202 0.050404680664151727 0.06516443866064954 0.091304468625272361 0.078420343484479182 0.062046598433419246 0.080478849754323553 0.036848672565546477 0.046377718511235073 0.075700179363797596 0.04021521940657756 0.074998599060979262 0.11440888445318505 0.048805759240743998 0.068735038807969676 0.10042018637985418 0.074017173740972816 0.097103408744343589 0.053620898447081018 0.10188201671282564 0.066497367015345629 0.03095890945750613 0.07253791122842293 0.031172230588892534 0.068497026193985469 0.042486307861349944 0.067280452082570733 0.040013965082487751 0.055102744804288992 -0.027682381408224502 -0.027682381408224502
leaf_weight=1247.1555897966027 17.830103516578674 2580.5256659910083 774.30193342268467 20.406857244670391 14.978561639785765 11.195828855037687 19.053202345967293 11.112659391015766 15.729308776557444 14.801527570933102 14.995785094797613 12.492125920951368 11.491928834468125 17.585269965231419 15.967781517654659 18.253911979496479 10.730138093233107 14.787475429475306 16.627474077045921 10.880790639668705 12.866878718137743 13.033157665282488 11.743674177676441 16.566820368170738 12.757762510329487 11.647350490093231 16.234812390059233 16.370558191090822 16.387219291180372 10.948236230760811 20.71296763792634 12.421704553067682 17.514849703758959 16.031715776771311 10.757873985916378 19.027725659310818 18.585953060537577 12.382738899439575 13.941349409520624 17.564262446016073 11.260838504880665 21.108440767973661 14.929336562752722 13.999888382852079 14.638425540179012 16.235930863767862 21.700633972883224 11.504356533288957 11.046786174178125 11.055611245334147 12.375339470803736 11.233462899923326 11.709264434874056 11.104451715946199 12.748634800314905 13.887942280620338 11.564674418419598 18.967962007969621 21.264260098338127 19.084578022360802 11.640608247369526 13.958508457988499 17.127274591475725 14.334225878119467 15.577173825353386 15.830985039472578 11.434954680502413 15.888512466102837 12.651817437261341 19.472764950245619 11.293688986450436 12.410086497664453 11.071923464536665 14.861766047775744 22.25247360765934 15.046193730086086 13.905331280082466 11.215501237660648 12.387107782065867 12.736047055572273 15.67422256246209 14.64933357387781 11.338624686002733 12.816214755177496 18.556501127779487 19.818820349872112 18.515795219689611 11.785345818847416 14.225643802434208 12.664695098996161 12.005387127399443 11.077076882123949 12.816395219415424 15.279803361743687 13.689641427248715 21.073580522090197 20.310659497976303 12.090242385864256 11.211888600140808 13.660665266215803 19.470372620970011 12.205196872353556 12.889195919036863 18.779543444514275 11.372847028076647 15.212326943874357 14.637376226484774 12.453844923526047 20.412736788392067 18.654096316546202 12.012477837502955 10.864358264952896 11.198769714683293 11.28379735350609 21.886266555637121 13.069107364863155 13.504961527884008 12.284420993179081 11.061653818935154 12.316769439727066 15.492970924824474 12.217657331377266 17.893642533570528 12.540240466594698 12.524439178407194 11.414429944008591 12.529196716845034 11.22997337207198 18.494533080607653 13.157263126224278 14.416471831500528 14.908012114465235 11.54835721105337 11.344891518354418 15.308604195713995 11.254420291632412 13.167069878429173 12.721331149339674 13.624317184090613 12.02866770327091 12.247899886220695 10.6187108643353 12.349112235009668 11.452893953770397 12.206453405320643 12.485503159463407 13.954097185283898 22.027914356440306 12.541000336408613 11.132130533456801 19.189455799758434 12.394031800329683 14.654761448502539 20.251775525510311 14.320303518325089 10.790638793259857 10.422266658395531 10.528864391148089 10.248783074319364 20.245049837976694 15.377505447715523 12.2378092110157 12.546291168779133 11.612733904272316 11.398290626704691 14.72930049523711 13.130633644759653 11.745117232203482 13.523182254284619 13.745736390352247 17.506892271339893 10.702391125261782 17.499841026961803 10.648422729223965 13.329357840120791 11.172810323536394 14.60279034078121 11.971425510942934 11.055882338434456 2167.180011831224 9.584557041525839
leaf_count=26805 336 55463 16642 295 264 177 321 172 240 239 253 205 178 270 259 283 176 236 260 174 201 201 186 250 201 173 256 247 254 172 316 182 287 246 175 290 287 185 207 280 175 326 238 219 231 256 340 175 173 175 189 174 181 174 199 225 180 290 329 293 182 224 269 221 246 243 175 248 198 306 173 184 173 227 341 227 222 172 188 193 243 225 174 198 291 303 282 181 218 197 179 172 197 234 213 325 317 186 172 209 296 189 190 298 175 237 223 192 326 287 190 172 174 174 336 201 228 194 180 194 242 186 280 199 192 172 193 174 281 206 223 231 180 172 245 173 206 176 216 187 195 174 196 181 190 195 216 341 201 175 300 201 231 313 230 172 173 173 172 308 241 192 195 181 178 230 208 172 224 207 277 183 275 175 207 180 228 197 175 46579 206
internal_value=0 0.605157 1.90212 2.82373 2.83866 2.84651 2.68155 2.58006 2.87404 2.75782 2.62375 2.47842 2.69767 3.05202 2.80406 2.46116 2.78531 2.04037 2.88722 2.73788 2.89987 2.89244 3.05222 2.99176 2.93732 3.70445 2.94984 3.13878 2.87748 2.45448 2.86267 2.81765 2.86458 3.67336 2.40058 2.83018 2.84627 2.79642 2.85344 2.83038 2.74697 2.48721 2.74535 2.48464 2.83738 3.06527 2.7756 2.81544 3.33584 2.75247 3.96305 2.70329 2.73212 2.76146 2.86385 2.69217 2.15024 3.09665 3.41671 2.73142 4.02145 1.69382 2.51972 3.11214 3.00729 2.62895 3.62553 3.33671 3.10167 2.81749 3.13827 3.03777 3.504 3.62685 2.96861 3.0991 3.01393 2.84878 2.32607 2.94728 2.35919 2.93615 2.86465 2.99788 2.76686 3.12038 3.56273 3.11517 3.50608 3.04275 3.36396 3.09259 2.64973 3.90635 2.86611 3.14382 2.65584 2.38854 3.00277 3.04352 2.97538 2.62918 3.18639 2.1862 3.55824 2.16176 2.92289 3.09725 2.89173 2.63784 2.30767 2.59546 1.98653 2.85343 2.71154 2.97135 2.05955 2.26564 1.98806 2.61339 2.42707 3.4765 2.70005 2.30786 3.11963 3.23238 3.38911 3.15774 2.94641 2.70952 2.67379 1.91068 1.8824 3.36873 2.48616 3.26967 2.35062 3.69744 2.11165 3.01723 2.82963 2.67479 2.27788 2.90369 3.06965 3.31805 3.07302 3.34404 2.67962 2.65151 2.48285 2.71186 3.00387 3.10646 2.14214 1.71301 2.30559 2.07752 2.30249 3.23442 2.3472 2.11293 3.89215 2.33216 3.07907 3.39076 2.36494 3.20683 1.6316 3.49217 2.20879 1.61798 2.4417 1.60934 2.95449 2.00638 2.24774 1.85182 1.9335 -1.05144 -1.05144
internal_weight=0 5876.59 3296.07 2512.18 2494.35 2479.37 605.953 396.762 209.191 169.396 377.709 221.412 145.339 58.1756 46.6837 87.1638 49.2358 37.928 137.087 105.73 1873.42 1853.01 290.963 266.282 249.715 24.6805 70.8216 54.5868 38.2162 21.829 1562.05 1096.15 985.282 40.1985 110.866 945.083 914.401 744.858 628.883 614.942 474.492 115.974 64.6761 43.5677 28.6383 169.544 456.928 418.052 45.1228 372.929 23.4221 349.207 338.151 326.442 229.313 131.982 39.4111 97.3304 51.8728 45.4575 30.6086 27.8465 97.1294 140.45 116.632 54.285 23.8177 62.3473 46.4588 32.1246 153.308 127.152 36.0283 26.1555 465.902 223.027 200.775 242.874 38.5106 204.364 28.5411 185.729 171.079 148.542 105.425 75.3198 43.1174 30.3011 49.3243 175.823 62.3806 50.3753 23.8935 29.5054 113.442 54.0489 32.9754 25.9956 225.345 214.133 189.099 55.6176 24.6329 30.9847 25.0335 51.2981 92.5711 66.1581 53.7042 39.0668 38.454 26.4415 22.5374 91.1241 72.0964 46.2098 76.0724 51.865 39.5806 59.393 45.7034 23.722 33.3866 34.9089 133.482 106.541 81.9691 69.4399 49.9696 24.5717 26.9409 26.1235 30.1049 39.7955 26.4131 33.1407 30.6819 24.0662 26.373 32.7416 156.297 95.5261 34.9392 60.5869 49.4742 38.0213 60.7709 35.982 24.7889 80.0021 57.3704 46.2382 33.8442 38.5057 78.1246 21.5485 56.5761 42.2558 31.7269 38.7396 38.8762 27.6153 24.9564 24.3705 22.6318 31.3568 29.0984 27.7768 28.519 26.4818 32.3084 24.2074 32.7122 23.1405 25.8149 23.7131 25.8866 22.5901 21.3047 3414.34 783.886
internal_count=184951 111567 56104 39256 38920 38656 9604 6351 3253 2665 6030 3565 2303 915 737 1388 772 616 2149 1659 29052 28757 4470 4096 3846 374 1103 847 600 346 24287 17100 15327 600 1773 14727 14234 11624 9811 9604 7420 1813 1014 688 450 2610 7140 6532 702 5830 362 5469 5294 5113 3585 2076 629 1509 801 708 472 449 1528 2184 1824 851 360 973 725 504 2354 1954 552 400 7187 3436 3095 3751 591 3160 444 2868 2643 2295 1634 1163 661 463 755 2716 948 769 369 452 1768 839 514 408 3464 3292 2908 863 376 487 384 799 1447 1028 836 613 608 418 348 1402 1112 710 1262 851 657 929 716 361 522 556 2045 1630 1252 1059 763 378 415 403 471 588 419 509 493 348 415 503 2465 1512 567 945 773 592 953 557 396 1259 907 732 531 596 1270 347 923 693 520 589 608 433 379 382 352 490 467 418 477 400 516 411 512 380 402 379 402 371 347 73384 16848
shrinkage=0.0263282


Tree=4
num_leaves=176
num_cat=0
split_feature=0 0 1 0 0 3 3 3 0 2 1 2 1 0 1 1 3 3 3 3 1 0 0 3 2 0 1 3 3 3 1 1 2 2 1 0 3 2 3 3 1 1 2 0 2 1 0 0 2 0 3 2 2 0 0 3 3 3 2 2 1 2 2 3 0 2 2 3 1 1 0 2 1 3 2 2 1 1 2 2 2 0 1 2 1 2 2 1 2 2 0 2 0 3 3 2 1 2 2 3 2 1 2 0 0 2 1 2 2 2 3 3 3 1 1 3 3 0 2 2 2 1 1 0 1 2 0 1 3 3 2 2 2 2 0 2 1 0 1 2 2 0 3 3 2 0 2 2 0 3 2 1 3 1 1 1 3 0 2 3 3 3 2 2 1 1 1 3 2 3 2 0 2 0 0
split_gain=5674.31 11573 7823.56 64.1012 20.4258 17.4572 11.4471 13.7292 14.5111 9.62079 9.14896 12.9877 8.86398 9.50827 14.4474 11.9266 10.8269 7.66346 10.2082 15.274 18.9257 10.7488 8.37619 8.14294 8.45004 8.43305 8.43144 8.88254 7.26437 7.88479 11.6328 7.04562 7.02055 6.92482 8.73003 6.69819 16.6201 13.0563 8.81194 14.5021 7.93152 19.8153 11.5889 19.129 18.6807 22.9737 17.2041 13.5521 29.1519 13.1327 13.5377 11.9882 12.0658 11.8646 11.4477 11.6924 9.87736 20.7803 16.9358 10.6527 9.68217 9.66125 9.63533 12.5126 8.74343 8.41515 7.51896 10.377 7.31982 15.7289 6.7026 11.9953 8.60824 10.0576 7.51288 17.8874 10.6755 25.9414 20.4255 12.7274 24.9098 15.3261 8.95561 9.77496 24.0188 8.88904 8.64176 8.14275 8.09279 11.1049 8.38974 16.6908 16.2912 8.97028 8.96168 8.60164 8.02709 8.83938 8.21434 8.01471 18.8742 12.9844 16.5195 10.1869 7.61483 7.21111 6.67755 6.56472 26.2262 18.4344 7.02337 6.42389 6.65874 6.378 6.28727 5.89259 19.9647 12.5791 12.6206 6.25951 5.7638 5.23588 10.8256 5.20267 6.3233 5.76856 5.01859 4.9592 4.79192 11.1493 5.04236 4.64329 12.2199 4.49898 4.38943 4.35234 4.7677 4.33877 4.0463 3.93768 14.3945 17.14 13.5131 11.0521 10.6036 17.5389 16.4068 13.6112 13.5486 12.2671 11.8506 11.6501 11.3328 8.73831 5.31356 19.5321 4.73841 5.13168 4.53237 4.18224 3.92028 3.82952 3.77513 3.55817 2.71119 2.31539 1.73377 1.71533 1.67967 1.56784 1.02467 0.806993 0.616627 4.54747e-13 1.13687e-13
threshold=398.50000000000006 700.50000000000011 699.90002441406261 401.50000000000006 698.50000000000011 11391.500000000002 11981.500000000002 11879.500000000002 459.50000000000006 34737796.000000007 21.899999618530277 22665360.000000004 30.899999618530277 425.50000000000006 81.90000152587892 144.8999938964844 10514.500000000002 11867.500000000002 11847.500000000002 11784.500000000002 129.8999938964844 644.50000000000011 546.50000000000011 11413.500000000002 39085824.000000007 688.50000000000011 671.90002441406261 11431.500000000002 11899.500000000002 11942.500000000002 433.89999389648443 637.90002441406261 31626379.000000004 24540074.000000004 319.89999389648443 447.50000000000006 11198.500000000002 23702708.000000004 10889.500000000002 10443.500000000002 293.89999389648443 287.89999389648443 19914601.000000004 608.50000000000011 27804017.000000004 96.90000152587892 639.50000000000011 486.50000000000006 17394938.000000004 505.50000000000006 11193.500000000002 4967483.0000000009 8331954.0000000009 466.50000000000006 542.50000000000011 10614.500000000002 10849.500000000002 11124.500000000002 32188725.000000004 34827640.000000007 302.89999389648443 13374560.000000002 14236165.000000002 10679.500000000002 533.50000000000011 6595381.5000000009 11879248.000000002 10629.500000000002 243.8999938964844 198.8999938964844 667.50000000000011 5358080.0000000009 355.89999389648443 10372.500000000002 3772398.7500000005 4586932.5000000009 596.90002441406261 555.90002441406261 9009455.0000000019 21893886.000000004 27804017.000000004 622.50000000000011 545.90002441406261 36475988.000000007 408.89999389648443 30319599.000000004 24448453.000000004 535.90002441406261 19821595.000000004 21049178.000000004 596.50000000000011 12059519.500000002 571.50000000000011 10809.500000000002 10300.500000000002 15354721.000000002 637.90002441406261 15177519.000000002 16104086.000000002 10654.500000000002 31999209.000000004 476.89999389648443 32763189.000000004 523.50000000000011 489.50000000000006 26681595.000000004 438.89999389648443 28463603.000000004 20196014.000000004 12990048.500000002 10929.500000000002 10779.500000000002 10478.500000000002 605.90002441406261 331.89999389648443 10569.500000000002 10458.500000000002 523.50000000000011 35271678.000000007 35094288.000000007 21893886.000000004 480.89999389648443 370.89999389648443 690.50000000000011 480.89999389648443 24353594.000000004 566.50000000000011 391.89999389648443 11004.500000000002 11218.500000000002 27431117.000000004 2826152.2500000005 5073160.5000000009 23147700.000000004 411.50000000000006 29195013.000000004 363.89999389648443 546.50000000000011 275.89999389648443 31718156.000000004 29474304.000000004 549.50000000000011 11504.500000000002 11469.500000000002 23987246.000000004 536.50000000000011 14139269.000000002 11688896.500000002 546.50000000000011 11565.500000000002 16743786.500000002 299.89999389648443 11582.500000000002 225.8999938964844 399.89999389648443 278.89999389648443 11677.500000000002 549.50000000000011 18055341.000000004 11637.500000000002 10759.500000000002 10594.500000000002 26681595.000000004 24724855.000000004 162.8999938964844 311.89999389648443 153.8999938964844 10674.500000000002 36383094.000000007 11673.500000000002 13567755.500000002 512.50000000000011 12431463.000000002 999.50000000000011 696.50000000000011
decision_type=2 2 2 2 2 2 2 2 2 2 2 2 2 2 2 2 2 2 2 2 2 2 2 2 2 2 2 2 2 2 2 2 2 2 2 2 2 2 2 2 2 2 2 2 2 2 2 2 2 2 2 2 2 2 2 2 2 2 2 2 2 2 2 2 2 2 2 2 2 2 2 2 2 2 2 2 2 2 2 2 2 2 2 2 2 2 2 2 2 2 2 2 2 2 2 2 2 2 2 2 2 2 2 2 2 2 2 2 2 2 2 2 2 2 2 2 2 2 2 2 2 2 2 2 2 2 2 2 2 2 2 2 2 2 2 2 2 2 2 2 2 2 2 2 2 2 2 2 2 2 2 2 2 2 2 2 2 2 2 2 2 2 2 2 2 2 2 2 2 2 2 2 2 2 2
left_child=-1 2 3 -2 5 10 7 17 120 28 11 126 -12 14 -14 -16 114 18 19 23 -21 135 -20 138 25 26 27 -25 -10 33 -31 131 -13 34 -30 36 37 66 39 -39 41 42 43 47 45 137 65 53 49 -49 54 -48 -53 -37 55 -51 115 58 -58 -59 -42 -54 63 164 133 -45 67 -15 69 161 74 -72 -73 -74 113 -76 77 82 -78 96 163 111 83 87 -85 86 160 88 90 -90 92 -92 93 94 -77 -93 97 -80 -98 100 103 102 128 -91 -96 -105 171 108 109 110 -18 112 -82 121 -17 116 117 -46 166 -117 -9 122 -62 124 -75 -126 -5 -68 130 -130 -101 165 -133 -47 -116 136 -22 -44 -7 140 143 -142 -141 158 145 149 147 151 159 170 -148 -147 -152 -144 155 169 157 -155 -134 -146 -79 -66 -150 -81 -56 -29 -119 -86 -60 -151 -145 -95 -106 -3 -4
right_child=1 173 174 4 -6 6 -8 8 9 -11 12 32 13 35 15 16 107 -19 22 20 21 -23 -24 24 -26 -27 -28 31 29 30 -32 -33 -34 -35 -36 40 -38 38 -40 -41 60 -43 44 46 56 64 51 48 -50 50 -52 52 61 -55 62 -57 57 59 168 -61 70 -63 -64 -65 68 -67 127 -69 -70 -71 71 72 73 123 75 76 78 85 79 80 81 -83 -84 84 167 -87 -88 -89 89 99 91 95 -94 106 104 -97 98 -99 -100 101 -102 -103 -104 105 172 -107 -108 -109 -110 -111 -112 -113 -114 -115 134 119 -118 118 -120 -121 -122 -123 -124 -125 125 -127 -128 -129 129 -131 -132 132 139 -135 -136 -137 -138 -139 -140 142 141 -143 153 144 148 146 150 -149 162 154 152 -153 -154 156 -156 -157 -158 -159 -160 -161 -162 -163 -164 -165 -166 -167 -168 -169 -170 -171 -172 -173 -174 -175 -176
leaf_value=-0.027645408581249559 0.018520391750113774 -0.027645408581249559 -0.027645408581249559 0.10039563238255519 0.038067440143058157 0.063943532018084601 0.046696536965224182 0.079126017879326299 0.087236831734826187 0.049316437755662128 0.052837322340139145 0.051537117627878208 0.035447869534274687 0.087178957032372523 0.088928905976653067 0.058709993462416378 0.07788105681069768 0.045407468642764216 0.065637407065020817 0.025391295714351378 0.060373847259485906 0.080552007059510503 0.095325273202473401 0.080529903775497305 0.087398136172420912 0.083516057657213899 0.082349428829083512 0.045657602684328426 0.036178169560182341 0.06619350025050573 0.097158059977550781 0.048798674555658922 0.079668492374802391 0.076216823295726863 0.066180585461461508 0.080721031985278704 0.099483588983678331 0.071577154052039405 0.064041672137893066 0.1052650317986803 0.050869888613036561 0.10437614580487772 0.066557898478261976 0.032639967213653566 0.082567781530755266 0.052195066049480154 0.094465112674434012 0.098659638167146443 0.11460670075517543 0.043592882920951613 0.098832167381189467 0.045202463091192496 0.090523685469983822 0.05336858883077622 0.10530652829410993 0.075796076159649922 0.1195746078776081 0.051468923079896992 0.074608550851676461 0.08243910676719822 0.091019702486174289 0.063969019104048785 0.057616036429611189 0.068476447857810943 0.062438529665853885 0.060070329656776181 0.046666344737871242 0.056891370005436398 0.040189314477031772 0.087123470442235618 0.051500083692006086 0.097420120487122008 0.089878464952559689 0.060095601348335081 0.041571652112236776 0.055611040742857706 0.096857830807439094 0.04354684396283124 0.055035239564940247 0.085868024745195129 0.062429259572232429 0.092865446670874943 0.086292205708561831 0.056584041823792862 0.10329310153779114 0.035660440013676555 0.076373897040659958 0.047313620631932299 0.092956331524018748 0.09748850763808703 0.070132687306682637 0.023039025396906117 0.08926070051273001 0.066227087097989468 0.093550858033273399 0.052321317568892828 0.063744303257539423 0.085920473502001216 0.038991319456017103 0.070221797782455034 0.054200441257683286 0.080948782386047829 0.080766326202219102 0.085214656600053007 0.064078532476617461 0.062486911946770592 0.039932747873959028 0.044462613151322786 0.090547757179296251 0.023865322645986484 0.049632827385316047 0.070811434545774002 0.036503955725535685 0.061990835738078988 0.091191580829166341 0.068098984625358072 0.10055301983934348 0.038487173450417272 0.075556016168911472 0.045486614744126672 0.10488923257772617 0.089518286818631818 0.059407716470304892 0.055722670994481631 0.070110662587326705 0.093830949003231093 0.079521141495456804 0.067178962423213029 0.027742623528811204 0.060647058840563227 0.04666762553151009 0.083375378515185422 0.057682055210197543 0.030628382472115228 0.071095100395713054 0.066025629066304797 0.040885783186181808 0.086981827378996457 0.044623634147012765 0.091663448606089132 0.020320906027228278 0.065375397395504839 0.077024806324770059 0.082024540441592575 0.052589819115866333 0.041315494108606493 0.020902435075527456 0.089145383899887118 0.080698617277908238 0.079589667665000599 0.071985789036274644 0.07306078664986583 0.039929108205087015 0.03597236614181723 0.07521516714842047 0.030757459702811994 0.067457429407787844 0.060692932339380515 0.035522617605555251 0.074246575991118585 0.060203635727324414 0.043476152553135652 0.10156462314961111 0.10378786939805919 0.088192406342147991 0.061354030784794802 0.052561068292203889 0.089350756650090887 0.088494278986133199 0.06581851126011419 0.092835018220828944 0.056743435094940751 0.072524948487891663 -0.027645408581249559 -0.027645408581249559
leaf_weight=3330.0043562054634 18.138678252696991 2508.711583353579 755.17732061445713 17.960376739501953 15.520503491163252 12.541637286543848 22.789617110043764 12.235410839319231 18.210892159491777 14.57930291071534 22.048713125288486 12.18717720359564 11.962207712233065 17.518715262413028 13.690830349922178 14.199813846498726 11.641696605831386 14.981076322495936 13.159599188715221 14.217207077890633 14.543266184628008 12.805790819227694 13.190976392477749 21.983858942985535 12.724147066473959 17.639682613313198 18.54267656058073 13.157617360353472 11.827353958040478 22.546730477362871 13.413138952106236 21.831184342503548 12.412335745990275 13.591971945017574 15.576368123292921 22.426344349980354 17.90250339359045 16.830245092511177 13.095736514776943 18.699234686791897 21.907571457326412 12.880850210785864 11.917552538216116 11.643053606152533 20.379882860928774 11.757696084678175 14.986436996608971 20.498869739472866 18.770015500485897 16.440206483006481 14.88737842440605 12.504224784672259 16.145802494138479 21.5610814653337 12.202164478600027 14.897039465606211 12.272245604544876 17.464677780866626 12.004715971648695 13.767374418675898 13.221941675990822 23.063086196780205 11.927749957889317 19.824029728770256 14.195421479642393 23.200151987373829 18.569256607443094 14.194618012756107 12.282149031758307 13.218193162232636 13.501163817942141 13.588510680943726 22.229315549135208 15.458910346031187 18.805810168385506 21.934852316975594 22.055340360850096 22.690204132348299 11.67848611995578 14.507757425308229 16.509833030402664 12.149523559957741 17.896920870989561 18.574239876121283 12.183386005461218 19.320373427122831 11.810012049973009 15.640934247523544 14.094470828771589 20.479204412549734 23.76412596181035 11.789531581103804 18.343336295336485 12.516980770975353 12.515970982611178 16.95242365822196 21.431471560150385 14.274549234658478 16.407718595117331 13.355718560516836 22.626314859837294 22.139259781688452 16.642848461866379 20.606368970125914 12.233056642115118 18.244320146739483 16.546610310673714 21.323179971426725 15.493020512163637 12.58728578686714 12.819157570600508 21.223660729825497 11.758081153035162 17.463378205895424 13.417727053165438 21.819367405027151 14.074345175176857 12.591978572309019 15.696387372910975 13.886157300323246 11.848230641335247 23.867700312286615 17.379200585186481 15.021652169525622 15.491416960954668 13.130202285945414 14.371730647981165 14.587905369699 15.019063748419287 13.603088065981863 11.925161458551882 23.313013389706612 14.367035061120989 15.601709213107823 17.179633360356092 13.941674388945101 21.664975982159376 18.252022817730904 18.745928235352039 14.683884304016827 11.905426844954492 11.512948125600813 21.223064884543419 12.149134717881681 12.687357056885959 16.239543803036213 11.764784723520277 12.744465600699185 12.305372897535564 11.461871068924667 12.073600277304648 15.819171756505964 20.837749432772398 11.463880080729725 21.854525744915009 11.582702230662106 15.106217477470635 11.824955798685549 11.534917790442703 12.053156938403843 17.233107373118401 15.381885502487419 11.748585715889929 16.321651197969913 13.532133277505634 12.901879247277973 11.709683407098053 12.283851973712443 12.150068916380404 11.460661742836235 12.161472748965023 12.362193711102007 11.742071311920879 8.0772481113672239 9.3478264659643155
leaf_count=73384 336 55285 16642 246 264 184 339 177 268 222 332 181 179 246 205 208 172 222 196 219 222 189 194 319 183 260 276 197 177 336 194 327 176 203 225 325 259 236 191 267 319 185 174 172 287 173 213 293 271 237 212 179 229 314 176 214 178 256 173 198 192 329 172 285 207 338 267 208 182 196 196 192 309 223 276 325 316 338 175 210 238 174 260 269 172 288 175 229 204 292 343 181 269 184 182 248 320 209 243 203 334 321 248 294 177 268 237 318 229 185 189 311 172 252 191 319 199 185 229 201 173 339 252 222 224 188 200 210 227 203 177 342 209 228 243 207 324 269 277 212 182 172 312 173 193 241 180 175 182 172 186 229 323 175 326 176 224 178 172 178 255 227 174 234 190 189 175 173 172 172 181 180 176 178 206
internal_value=0 0.579759 1.77139 2.57695 2.58972 2.59644 2.47208 2.4928 2.78386 2.6296 2.64953 3.0442 2.63702 2.64485 2.39883 2.49395 2.39199 2.4314 2.44849 2.42143 2.0065 2.24184 3.05753 2.4835 2.51542 2.49374 2.4674 2.43929 2.74549 2.61109 2.95286 2.40638 2.49663 2.3113 2.02185 2.66664 2.88312 2.74187 3.13363 3.39208 2.64765 2.7377 2.7104 2.85236 2.56939 2.25069 2.50296 3.04212 3.19145 3.01592 2.87136 2.80046 2.57223 2.55672 2.72344 2.23721 2.77121 3.07194 3.5851 2.47343 2.58886 2.84501 2.9885 3.19799 1.97744 1.93346 2.44823 2.79634 2.20697 2.40227 2.60513 2.83803 2.96347 2.84038 2.57259 2.54115 2.56755 2.49354 2.778 2.65085 2.88789 2.52084 2.58484 2.55519 3.00656 1.93324 2.14939 2.5034 2.53413 2.67684 2.37636 2.04373 2.52412 2.36499 2.61737 1.53107 2.30725 2.73557 2.01347 2.60793 2.83574 2.40648 2.1968 3.1321 2.92102 2.83125 2.00904 2.15675 2.34667 1.88979 2.3958 2.27378 1.96161 2.88043 2.77986 2.5865 2.74667 2.49665 2.17084 2.25253 3.48678 3.04903 2.77522 2.62472 2.79791 3.07626 3.46081 2.11527 1.92792 1.6477 2.24517 2.43718 2.46623 1.51536 3.03507 2.03304 1.85024 2.99732 1.98905 2.41855 2.36213 1.61313 2.62227 2.43377 2.50684 2.38899 2.08415 2.51174 2.91779 2.72713 1.65534 2.16422 1.96327 2.41063 2.47102 2.22665 2.12599 1.84306 1.81607 2.39822 1.92709 1.99699 3.4522 3.62179 3.65796 2.02934 1.7194 3.65743 3.09909 2.76147 3.32088 2.33646 2.59096 -1.05003 -1.05003
internal_weight=0 5959.01 3442.22 2677.69 2659.55 2644.03 791.072 768.282 133.829 109.746 1852.96 56.9316 1796.03 1773.98 144.315 132.352 118.662 634.453 619.472 593.121 77.1729 62.9557 26.3506 515.948 484.661 471.936 454.297 435.754 95.1665 76.9556 35.9599 413.77 24.5995 40.9957 27.4037 1629.67 131.398 113.496 48.6252 35.5295 1498.27 591.814 578.933 288.51 290.424 112.607 101.543 186.967 142.98 124.21 103.711 66.6996 51.7131 43.9874 88.8233 31.3372 177.817 67.6591 36.427 31.2321 906.455 39.2089 57.4861 45.5583 82.4371 34.8432 64.8705 31.7133 55.0776 42.7955 884.547 108.421 94.92 81.3315 776.126 704.194 685.388 507.07 178.318 156.263 92.4705 61.6411 436.016 418.119 43.0415 71.0537 51.7333 375.078 359.437 188.736 170.701 52.5061 118.195 99.8517 58.426 28.742 63.7922 25.953 37.8392 174.641 81.9562 92.6851 70.5459 59.3299 36.4911 38.8507 41.4258 73.8643 52.5412 37.0481 24.4609 49.4916 28.2679 71.9322 44.7972 110.158 74.4523 60.3779 39.998 35.7055 24.0836 54.4688 30.6011 59.1022 44.0805 28.6216 32.3321 33.1572 53.903 28.6222 25.2809 391.939 365.88 27.3594 30.5974 50.1499 36.2082 30.1696 31.2876 342.566 268.264 23.4184 74.302 244.846 218.944 170.15 89.4793 44.8032 48.7945 80.6704 44.6761 32.0587 32.9113 59.6181 56.3598 34.5052 38.3951 23.2888 25.902 24.7405 39.9233 29.5773 24.054 30.8294 25.7343 26.0595 24.3017 24.4672 24.1548 22.9225 24.3106 24.8792 23.9751 2516.79 764.525
internal_count=184951 111567 56104 39256 38920 38656 11738 11399 1975 1625 26918 803 26115 25783 2119 1940 1735 9424 9202 8812 1161 942 390 7651 7190 7007 6747 6471 1403 1135 530 6152 357 605 402 23664 1884 1625 694 503 21780 8562 8377 4149 4228 1656 1460 2689 2050 1779 1486 950 737 639 1274 451 2572 977 523 454 13218 558 823 651 1213 510 931 454 812 630 12899 1554 1358 1166 11345 10310 10034 7432 2602 2286 1339 895 6376 6116 614 1056 768 5502 5273 2771 2502 772 1730 1461 860 429 947 384 563 2567 1188 1379 1058 854 535 562 601 1093 775 546 361 721 410 1035 642 1595 1075 876 589 520 350 783 444 857 635 412 446 477 810 430 380 5825 5439 401 434 753 546 443 461 5097 3996 354 1101 3642 3261 2534 1334 645 727 1200 689 470 509 889 846 520 577 353 381 371 593 434 356 444 366 386 360 345 345 344 354 364 353 55463 16848
shrinkage=0.0263282


Tree=5
num_leaves=176
num_cat=0
split_feature=0 0 1 0 0 3 3 3 0 2 0 1 2 2 1 2 3 1 0 1 1 1 3 3 3 1 1 3 2 2 0 0 3 3 2 2 1 2 1 1 1 0 2 2 1 2 3 1 3 2 1 1 1 1 1 3 1 2 3 3 3 1 0 3 2 0 1 1 2 3 0 3 1 3 3 3 3 1 1 2 0 3 0 0 0 0 2 2 3 3 1 1 2 0 1 0 0 0 2 2 3 0 0 2 2 2 1 3 3 3 2 3 3 2 0 1 1 2 3 1 2 1 1 2 2 0 1 1 1 3 2 2 2 1 3 0 2 3 0 0 2 0 2 2 3 3 3 2 0 2 2 0 3 1 1 2 2 1 3 0 0 0 0 0 0 1 2 1 1 0 0 2 0 0 1
split_gain=5437.87 10652.5 6886.93 53.1975 16.6751 13.9392 9.28223 10.9016 11.2154 8.43628 12.3315 10.9157 13.8817 10.4623 7.21347 10.0629 7.26793 7.04555 8.40142 7.21708 11.2431 13.445 11.4788 11.1754 10.0264 6.37618 6.54408 10.3098 7.54725 9.9616 9.39945 11.0635 10.3428 6.619 6.4152 24.5692 13.837 11.2699 7.99388 10.2901 7.02971 6.43869 18.3037 22.3255 14.8264 9.52828 9.45658 17.0417 13.2845 12.0672 9.01001 7.59606 6.89776 7.62155 6.73855 7.90699 6.84275 6.8722 6.23231 8.05924 12.3585 15.9141 8.60765 6.56062 6.63051 6.63488 6.64101 7.04136 18.1914 17.5397 12.5227 7.99786 7.72576 23.2026 14.6207 10.0795 7.52348 9.06815 12.1298 6.67735 6.42637 6.25922 6.23071 12.8737 13.7663 8.18263 8.60661 8.80492 6.33107 13.4086 13.5058 10.2943 8.60041 6.14719 7.84296 6.10823 6.02146 5.98055 5.94201 10.6175 5.82324 9.71758 9.49959 5.77407 16.9114 9.30986 9.29768 7.53872 11.167 8.25413 9.21817 8.94801 12.2478 8.51401 11.0995 11.5614 19.8126 7.35824 7.33681 7.46276 12.9659 8.24122 11.167 10.5555 10.4339 14.0139 9.49361 8.42568 16.0716 8.07485 7.19398 7.14049 8.90549 7.00217 6.32996 6.03367 5.61693 5.15062 5.1127 5.68598 5.49479 5.5681 4.9158 4.82569 4.39453 12.5257 6.05091 4.28264 4.2465 4.09682 8.07709 18.5782 12.054 13.8902 13.7183 9.98177 6.87657 4.6384 3.90781 7.79735 3.81713 3.76864 3.56212 3.46282 3.37141 3.33259 3.13626 2.93939 2.41085 2.31139 1.60395 1.13822 4.54747e-13 4.54747e-13 3.55271e-15
threshold=398.50000000000006 700.50000000000011 699.90002441406261 401.50000000000006 698.50000000000011 11391.500000000002 11981.500000000002 11879.500000000002 459.50000000000006 12531665.000000002 529.50000000000011 174.8999938964844 24077465.000000004 6119998.0000000009 21.899999618530277 22665360.000000004 10009.500000000002 36.900001525878913 422.50000000000006 222.8999938964844 290.89999389648443 378.89999389648443 10634.500000000002 10754.500000000002 10300.500000000002 207.8999938964844 150.8999938964844 10076.500000000002 4967483.0000000009 8431712.0000000019 495.50000000000006 453.50000000000006 10269.500000000002 11302.500000000002 39085824.000000007 37762178.000000007 490.89999389648443 36475988.000000007 552.90002441406261 373.89999389648443 213.8999938964844 628.50000000000011 31441893.000000004 30702784.000000004 278.89999389648443 32375493.000000004 10398.500000000002 573.90002441406261 10300.500000000002 14139269.000000002 355.89999389648443 388.89999389648443 422.89999389648443 657.90002441406261 579.90002441406261 10970.500000000002 482.89999389648443 14417998.000000002 11867.500000000002 11847.500000000002 11784.500000000002 129.8999938964844 644.50000000000011 11413.500000000002 39085824.000000007 688.50000000000011 671.90002441406261 535.90002441406261 18807351.000000004 11677.500000000002 586.50000000000011 11431.500000000002 433.89999389648443 11517.500000000002 11614.500000000002 11690.500000000002 11459.500000000002 375.89999389648443 405.89999389648443 27243412.000000004 546.50000000000011 11489.500000000002 586.50000000000011 542.50000000000011 562.50000000000011 526.50000000000011 26953843.000000004 33990494.000000007 10704.500000000002 10438.500000000002 96.90000152587892 102.90000152587892 16650277.500000002 576.50000000000011 183.8999938964844 471.50000000000006 624.50000000000011 529.50000000000011 14236165.000000002 29014036.000000004 10799.500000000002 474.50000000000006 462.50000000000006 3582633.2500000005 4405462.0000000009 2451892.7500000005 547.90002441406261 11218.500000000002 11159.500000000002 11089.500000000002 16192021.000000002 11004.500000000002 11044.500000000002 23422468.000000004 520.50000000000011 352.89999389648443 537.90002441406261 16929307.000000004 10056.500000000002 659.90002441406261 21981534.000000004 378.89999389648443 402.89999389648443 10639511.500000002 15177519.000000002 526.50000000000011 462.89999389648443 260.89999389648443 296.89999389648443 10325.500000000002 21893886.000000004 26591653.000000004 24919756.000000004 343.89999389648443 10504.500000000002 549.50000000000011 31626379.000000004 11522.500000000002 590.50000000000011 529.50000000000011 33893080.000000007 481.50000000000006 23888710.000000004 11208700.000000002 10644.500000000002 10824.500000000002 10249.500000000002 21893886.000000004 531.50000000000011 35552248.000000007 23324373.000000004 579.50000000000011 11578.500000000002 150.8999938964844 243.8999938964844 30883712.000000004 13095644.000000002 63.900001525878913 11805.500000000002 562.50000000000011 617.50000000000011 566.50000000000011 663.50000000000011 558.50000000000011 549.50000000000011 275.89999389648443 21329360.000000004 331.89999389648443 473.89999389648443 554.50000000000011 546.50000000000011 25393141.000000004 387.50000000000006 997.50000000000011 684.90002441406261
decision_type=2 2 2 2 2 2 2 2 2 2 2 2 2 2 2 2 2 2 2 2 2 2 2 2 2 2 2 2 2 2 2 2 2 2 2 2 2 2 2 2 2 2 2 2 2 2 2 2 2 2 2 2 2 2 2 2 2 2 2 2 2 2 2 2 2 2 2 2 2 2 2 2 2 2 2 2 2 2 2 2 2 2 2 2 2 2 2 2 2 2 2 2 2 2 2 2 2 2 2 2 2 2 2 2 2 2 2 2 2 2 2 2 2 2 2 2 2 2 2 2 2 2 2 2 2 2 2 2 2 2 2 2 2 2 2 2 2 2 2 2 2 2 2 2 2 2 2 2 2 2 2 2 2 2 2 2 2 2 2 2 2 2 2 2 2 2 2 2 2 2 2 2 2 2 2
left_child=172 2 3 -2 5 14 7 58 147 13 -11 -12 -13 -10 15 161 -16 142 19 23 -21 -22 24 -19 -23 26 27 -20 -28 -30 31 -31 -32 82 35 37 -36 40 39 -39 -27 42 43 103 -44 -46 47 48 49 -43 98 -52 -53 54 56 -56 -54 -58 59 60 63 -62 158 165 65 66 67 71 70 79 95 -65 76 -74 -75 -76 -73 81 -79 -70 -61 -78 83 85 -85 86 100 -88 89 90 -84 92 -90 -34 -95 -69 -14 -37 -48 -100 102 -102 -29 105 -105 106 133 108 109 111 -111 113 -113 118 115 -115 -117 143 -106 120 121 124 -123 129 127 -126 -125 -120 -129 -124 -119 132 -116 -42 -121 -131 -17 -83 139 140 -47 -142 170 -109 146 -146 -128 -9 -107 150 152 155 169 157 -155 -152 -156 -154 -63 -160 -99 -5 -51 -133 -148 -7 -24 -130 -132 -139 -18 -59 -1 -3 -175
